8.266077845624892
0.46399894257287877
-0.3731729021658403
-0.7808561985425337
-0.38322649641071665
0.8079354352262053
1.0867448898759537
0.0025811329780949938
-0.34859942331597804
-0.3622000707144667
-0.22124278703975336
-0.15022884439903256
0.5911181556607484
-0.08988743041104642
-1.0803265412269139
-0.34069301200487945
-0.9875801741668284
0.17248342109856485
-0.7392542757791046
0.3384954589896279
-0.8181524864859631
-1.2030599961919457
-0.12464574095886838
-1.093419314656484
-0.8106824175301779
-1.2309282459382507
-0.8147610909538452
-1.373529102183472
0.22432310545786505
-0.011074315406047308
-0.5991241095571741
-0.5230508992299928
0.18717703268346594
-0.538546733432883
0.7828712756080909
-1.144257856428392
0.7467715987395485
0.05823001739005014
-0.08062809754042355
-0.4650187940549903
0.15272523127691173
0.4383091511387731
-0.09718425586205784
0.2499862710810244
-0.0556548805565909
-0.38497791753584376
-0.27905326920200174
-0.017872428490226154
0.8241109814144112
-0.5414051928830502
0.08211085127137466
-1.115932477639459
1.1863339566159405
0.4215226168181747
-0.9264301353377663
0.5307863796316147
0.7069904727920642
-0.10958543745723076
0.4486168058496778
1.2318054580366071
-0.5160332421958852
-0.4609345246852276
0.2604042129987277
0.1269434503810794
0.7735226868442001
0.46063831870432104
-1.0008876446242105
-0.14083934328045303
0.2868929593576122
-0.3065965857969227
-0.9207176131983432
0.046181204503516066
-0.36459937476248777
0.5301155258911849
0.0871076019278737
0.6406762584388805
-0.3879843544540353
0.048444567615244696
-0.24656391115613863
1.9558843915620976
0.421319454498901
0.002562093698324483
-0.1974440020224193
-0.06604391400038072
1.493506801049741
0.08190075873858971
0.924298669039118
-0.569854425063142
0.08159069649887865
-1.2030582521882218
0.2501976596866955
1.0111434264095471
-0.6023960000127191
0.7245343729572085
0.6768018119811001
0.6952758792380185
0.45368431821549193
-0.9544614825891677
0.3936885227315718
0.002460712310201202
0.37310521202989494
-0.004694716900980122
-0.850626525539912
-0.003152691637646879
1.3773532290879493
-1.2877298149659864
-0.5943455263824502
-0.3871266581476575
2.1519476223639806
0.10067794736178116
0.531939923866777
0.4608389862037786
1.817014220935072
0.3885828124310778
-0.7633081110129856
-0.19653394775074223
0.02747397915096654
1.3681198197580386
0.1607873713279956
-0.7587762158403942
0.7839402673298108
0.8002375424713062
-0.04968536930448586
-0.8726641244854298
0.7743846500318444
-0.9176916240599541
-0.5687736310072481
0.13251129117004537
0.1980152220329058
-0.7675103917980542
0.724130146425212
-0.2219583182413407
0.04162380330456328
0.8458959810330817
-0.18116143875758958
-0.19354647221074123
-1.0251313308871535
0.14045278123056643
0.26986574218206455
-1.1978940656410977
0.5290211239501426
-0.08217796962560353
-1.0686013029534251
-0.41083151160942555
-0.37033235131768183
-0.9242266516314732
-0.18598590872381426
-0.6150310662330231
-0.105155850123956
-0.6045195649165035
-0.06765336865071535
-0.38265908590952036
-0.32059894845210424
-0.701143504502758
-0.8351571599156762
0.005402206883413807
0.47263360130124954
1.0833387454260228
0.23016784196819529
0.22981699631257307
1.1091650683193979
0.930521111846748
-0.4650998405514907
0.35583310925262845
0.17481022060296095
-0.8466427458542302
-0.5572313035767359
0.26767011359290993
0.4901628491443566
0.33087012819939465
0.3267256103385026
-0.1663606741611921
-0.48025412881275803
0.02061235313411213
0.19272795174836596
1.164953788177903
0.3964557570244559
-0.4824541846687913
-0.4817226236382097
-1.2237173401371344
-0.05272546352345088
-0.3519325412225643
0.04504758035804482
-0.0382945757836851
-0.2140046071392414
0.1705244264760919
-1.3564742235514697
0.8390592757092741
-0.09057539696322667
-0.19559894814788353
-0.808891006833234
-0.04006376860475869
-0.9368776438938029
0.32286678331939245
-0.0929924092526488
0.4903157998843376
0.9535879808634455
-0.4996681363652592
0.2539901683435325
-0.2571449209854437
0.5344589821327509
-0.41938411844603
0.21060572931705834
-0.2550125404998523
-0.25299408593008677
1.5854860989341562
-0.1240340548225333
0.32960257732996795
-0.2863163832977755
-1.0732389622016782
0.6611049914950392
-0.5593581138435981
-0.6406248374162093
0.8920751670984624
0.5165632336000207
1.407195839643097
-1.738618110829636
-0.37180434064573564
1.108207435203152
-0.7070079046460789
-1.3371571991728892
0.6251395697919147
-0.45584101530086113
0.34584676276474735
1.4068726585429614
0.24407916752320757
0.12027793947584911
-0.8513087326653155
0.34743494875547576
0.09496333800918043
1.6368281993760747
0.2840515037863679
0.8452820601177476
-0.15833119688843494
0.1273709573073075
0.690102808140123
-0.22042960802711623
0.007290086641742851
0.2147551804018481
1.0269922524437296
0.7070466349328471
-0.4285739293685581
0.5357901011474943
0.2755735512912273
0.7303612333118035
0.47151071432955416
-0.23554674513639978
-0.43349001538583554
0.5132908126936732
-0.09310785966470576
-0.4988016925448907
-0.9636972134083428
0.7514934392436432
0.9434733401558846
-0.632687333408997
-0.04950041460859267
0.8790338895111058
-0.23581756295826123
-0.4170376671462507
0.07139147047707198
0.7931287711167494
1.8717910093246846
-0.12778139811926942
0.07017803988346409
0.49689791242123693
0.12544181626034268
