-0.9670980988965842
-0.914368194309739
-0.9033088612041875
-0.2414054186930126
0.8005143451601034
-0.14417914093737227
-0.12388319587540042
-0.935835536509142
0.5975460581949257
-1.1114667170679053
-0.36265158870136743
0.047648214200130545
-0.08002328381540993
-0.26676908254771775
0.7599855486203921
-0.5057882597335098
-0.4402328137175108
0.6464240687660188
0.41924700930732345
-0.3586612942206695
-0.4636991426706214
0.03169002636515916
-0.6416289681103875
0.5476473934474195
-0.2561704046396449
0.203529209558224
-0.2227768603311255
0.9019917900497302
-0.3365393580416046
-0.3606962339318942
-0.06424999853926044
-0.8622872859703361
-0.050842217453654526
-0.351270168866222
-0.18846602740162233
0.29719901182186986
0.3400768048921452
-0.5853827325152005
-1.1892620020308353
-0.5427653993201138
0.18444514345229482
-0.0969343644015403
0.618227433388764
0.09273507009231932
0.08435602180538795
-0.005320164294970259
-0.41721441678557114
-0.017996323154115104
0.5966971122849487
0.2690905483911804
0.333250592799042
0.20811408567227352
-0.22249079890274456
0.14864298738110715
-0.26044559071324425
0.31133531363810646
0.8546644443980901
0.023297600364422244
1.22496819175567
-0.8861288322146553
0.6031950119037943
-0.07234467640632783
0.40990677060516456
0.7106538744618132
-0.4360272364508053
0.053748552613961956
0.13608959065206944
1.2604887699257261
0.8480146374555135
-0.3758004881561049
-0.5723474267527999
-0.344049600007265
-0.06279034910637532
0.3107030586634342
0.20401763027862646
0.01715970589481461
0.16301083657724363
-0.5141031835138741
0.7803246928434662
-0.3683361717191874
-0.4961764825705106
0.26407234673296354
-0.008338913817331595
0.18494012557165282
-0.009104242633374532
0.47276066224403046
0.25749525002443346
-0.6739252091447007
-0.417765925536439
-0.9233990780733848
-0.2418287191995232
-0.4810141414718372
0.7101615758037672
-0.0792899444159374
0.24427322700107473
0.03699814270399987
-0.03875010232272474
-0.0781153686587581
-0.14338212071082773
-0.48627045603582897
-0.06307323973156881
-0.8340333433717012
0.5232673741448924
0.2737459339300322
0.613467382516707
-0.08728300099058203
0.6747598897689113
0.5455836480419807
0.644413749876987
-0.2826176581025916
-0.7650662155989386
-1.540703380515453
0.040095973207551275
-0.3347597264301313
-0.19856850982214608
0.7101956007814051
0.555545108070667
0.5025134462572868
0.6108775228664782
-0.012805954072614312
0.16694925398826954
0.23919915230302824
-1.0316893490011878
-0.6071689353794051
0.46153996838822514
-1.863728999799783
-0.12583673994320027
0.7290778339125351
1.0904483355266612
0.021407010254600147
0.29174675651493037
-0.11927942186730783
-0.5327930847636575
0.8928421415854791
0.5094850290109094
-0.018477106810385155
0.1511470880707413
0.5942158946686067
-0.2032385120446859
0.6316938267796315
-0.6198530964839923
-0.008095940438602789
-0.1599671568773015
-0.33117161926597466
-0.45270247890037485
-0.22924094622606453
0.23129115068596218
0.24841799247894047
1.2656437555214002
-1.360403218554512
0.4768617794716925
0.3454417701277376
-1.0324319348904452
0.6174845716980587
0.4600016133886104
-0.21150722743742248
-0.8112145266962342
-0.22842816304127828
0.6270379334979737
-0.6004400575426896
-0.1299516048832388
0.1581157658343594
-0.6792819500192342
-0.12336287900132328
0.1705632335089678
0.8069958609933663
-0.45616093118450474
0.5503546298509234
1.316370965576211
-0.1898909972265655
-0.22703305750452982
-0.6309924872207485
-0.6336433458131615
0.5894330934060835
-0.8798629625928751
-0.16485711380876772
0.2158190032868593
-0.16590510515951035
-0.10133905650190113
0.11281325628791461
0.44388434903639395
-0.2264645346207337
-0.39827130905118036
0.5031606192561693
-0.0250202228035713
-0.2500923782515951
0.701585781669222
0.3186617504990018
-0.5684499618976543
0.5563050503214704
0.700214113263207
-0.0677262643813633
0.5529341432615781
-0.28869208042280897
-0.18255983642212495
0.11266484571402435
0.40029512918945953
-1.1935647643133374
0.5404399555578658
0.48486870763437606
1.7880908530730908
-0.3193874479723915
-0.03145953673816032
0.4976847678094136
0.6493820844512521
-0.33667934006283273
-0.4551365578630713
0.15197221187774215
0.1757847738663753
-0.11069238648000651
-0.23544413750166343
0.4269223778267763
0.4418815108929495
0.2010301456172056
0.4429053479999103
0.007786643548675212
0.30518049511058876
0.60872263491029
0.07923111811184444
0.11105257436338065
-0.717432310569812
0.9226365794583135
1.0936736608696336
0.8712934851528469
1.0981678083632889
0.7801461168166108
0.05022885788364536
0.09059940054317756
-0.9180096723692962
0.8690591384199688
-0.28755153651045545
-0.7267882040421406
2.440092669418712
0.5194947356192565
0.25440194986312953
-0.7645917084128522
0.3042248651227911
0.19735156640274393
0.8368227349464722
0.14054146533596779
-0.7232230740194959
0.06719885578563656
0.40152871965834197
0.799639599952421
0.4987257208474134
-0.37199509107081263
-1.27759225155289
-0.7875370829928053
0.06826854009469889
0.7405945085937806
-0.28285481597823814
0.8779641173766158
1.2758308827952185
0.4975708924084999
0.27799285527027173
-0.25870500210572245
-0.36384149302638624
-0.3062940565010422
0.03246014793129068
-0.2473241973506112
-0.3481088641706822
1.1038557546628054
-0.6953968186778061
0.508841671306653
-0.04514961518314112