-0.2936027296974843
-1.3700793214862372
-0.3144903099427963
-0.4579149065278704
-1.0773614211733593
-0.377627860781252
0.11437112760006368
-0.08356012372015509
-0.09354971377851933
0.21923374964873377
-0.0012473661322568788
0.6840974492889308
0.1724477743727486
-0.6310890899684525
-0.40055315564600097
0.7442882616945714
-0.5059962413029755
0.28416088670630824
-0.6757866945828996
-0.6991963164306608
0.6229296857044354
-0.5205728951788381
0.3432788855938795
0.24253345719810437
-0.5632259078641195
0.03280748040448796
1.2054819921837716
0.021787440375481
-0.0553423079549335
-0.43926233429577927
-0.3137792424846986
0.40385503204530193
0.4192461209892283
-0.6502758609094423
-1.0042053677379452
0.129169411719754
0.5035967566672617
0.1602525354198009
0.606756114574994
0.20102616462257672
0.07840049565099194
0.620842104951193
0.11572258849588164
-0.2525436408963115
-0.4738534979733497
-0.7263074728516261
-0.26830039840433517
-0.0728761115129736
0.40953138798612454
-0.3550497021915008
0.2303351639427343
-0.24479414630589144
0.40853134281713055
1.625827610218018
-0.26155530879827465
0.11113377539952332
0.5099424370548264
-0.4247107604798889
-0.008358293715559566
-0.2594154248487936
0.047785684893107694
0.9589584553954521
0.7298596614563861
-0.3372661040021188
0.5489463367739411
-0.7190141743959532
-0.09716168844856266
-0.5464367732035407
-0.04773586618595904
-0.022197747264197487
-0.17799642000399352
0.31612124600279745
-0.29439267435353983
0.41204908725200184
0.2127804543920025
-0.7031112348724581
-0.14094346027559057
-0.7187149261727832
0.31108805872613327
0.4264749587372725
0.8948411917906836
0.24861456735144075
-0.36176927719513274
-0.20626716269425094
0.6372304589176436
0.69979356716647
-0.5200338350981979
-0.8660700743710947
0.08375901869713141
-0.3029886903304931
0.6021854288241155
0.1646753374261342
0.3768712868528732
-0.37530551247934946
-0.46815677864103356
0.23078091450669133
-0.12498299866270268
-0.46902448552014175
0.28745183258308
0.06647825153776153
0.8002839147729467
-0.1584513900161995
0.8961267695739468
-0.38828290328175236
0.011758816259042876
-0.3251958687692772
0.8968898716363382
0.3057730820930812
-0.16085488004615192
0.08834655401002744
-0.11581263633185307
0.3088699967890444
-0.18031650106028602
-0.004827250833481604
-0.5717867875957531
1.230833871160484
0.06466514092499884
-0.3607225465499743
-0.865482126785368
0.8018724316355801
0.14584980271829978
-0.7618879999434955
0.5768560029903297
0.2850414297796999
-0.138876534450335
-0.31352730965030273
-0.4644415079643623
0.6057264751811359
0.28932376510841246
-0.8759709645753339
-0.7052788139547944
-0.43926183247456335
-0.0831860926562826
-0.33858723846674066
0.20706939566566668
0.8495251847489895
-0.37110185796755374
-0.3407891176121631
0.4941710277525444
-0.19676590555488754
-0.35012892609660706
0.5036019245750208
0.12687213381700763
0.35358017493932103
-0.09493260882645793
1.1502504948929329
-0.3581259272164953
0.01154254967032392
0.39632195925653413
-0.3631118090747903
-0.5183304159986836
-0.629466997511336
0.4397680078228412
-0.9784195579311115
0.44741278158897047
-0.9444244360452425
0.045346433609988274
-0.9672913652568011
0.06565725388733792
-0.07920922166997155
-0.5308275228756526
-0.7405433519763119
0.2522934337304006
-0.5501302171422768
0.9506664094362283
0.6208347040717955
-0.13122785486639504
0.4545197102785739
-0.7145674814894282
0.39852800905915653
-0.33383561371213716
0.25170370042396295
0.1813408866587642
0.8986173262079269
-0.32642679593124835
-0.7112704209621004
-0.03367507614275546
-0.4725921638918794
0.3864074990954226
0.1543722419881552
1.1270852730075291
-0.5840705977200623
-0.28979103876894097
-0.03692138818092079
-0.035199355904434765
0.03504709635141012
0.23463920711008535
-0.37664771610668957
-0.6649573235625617
0.6043955338975556
-0.017188636312022193
-0.11902290342846042
0.30457546330926083
0.6031465745899993
-0.15308579910786752
-0.4737655594840727
-0.14489173187754895
0.455845639135392
-0.7628003813851548
0.19131087714983547
0.03356735370284951
-0.15847079865765581
0.0009787585110045266
0.3516636813312951
-0.08817143488027623
0.15555706150930304
-0.4099334923416999
0.8277849630574998
0.5552354912820808
0.17109085504881083
0.03649707612268538
0.35579848808539855
-0.15806413973324226
1.5297799800909468
0.017837383174385994
0.057816403920291706
-0.7579754467833181
0.9805846151541024
-0.3384729945361234
0.36979614975159897
-0.5043811497081483
-0.6818903671918036
0.6757540737659419
0.650029080361092
0.5518511486235064
-0.5793541361136889
0.09156051409997999
0.0750015187152583
0.17384962844610877
0.6811249600319396
-1.077594783775811
-0.7419254810871261
0.7628391633498873
-0.41563358130988315
-0.47714355586242196
-0.020985993566402766
-0.7912198763447282
-0.33920838801314407
0.2719850390031531
-0.5005252247609027
-0.6767877598794731
-0.04652727596340128
0.2514829510806209
0.26196456796210327
0.4498889437038878
0.07349762157601912
-0.5926156492381145
0.39621852046201267
1.1330592104167554
0.05452161813889952
-0.2436770071008747
0.9937870606529946
0.06997893899315433
0.2554115531829604
-0.19275669455176822
-0.052730581266892645
-0.11025895298251526
-0.8222317471560909
-0.26073207660324044
-0.6664240843204671
-0.23193937712455664
0.22613549576383185
-0.574268231685619
-0.038661214305083694
-0.5498411713027938