0.6493475568855597
-2.113200615590083
-0.3287156828779687
2.5443573725840833
2.8422452707509906
2.2647668629515323
0.8042438058733229
0.5982562403851106
1.3894226603880329
0.2958490606445618
-1.1940817200752376
1.0773942410136053
-1.5783403513263596
-0.4826248101294128
-1.464563001837256
-1.3219543006991974
-2.1054526540508194
2.3328497307622014
0.48411955690138253
-2.117897975225702
-0.5001103986038258
-0.8377070678823663
0.2650397691646462
0.8292942041714617
2.835447291503309
1.3416903344216686
-0.5947460352965961
3.698996529565674
0.7740273452551049
-0.16051602348991836
-0.3264825820588119
0.18835760327052037
-1.0557408519788962
0.22020211127431918
1.7861762822794347
-0.995937281973168
0.311589938779299
0.03736272311855729
1.513578728967603
1.2130678375992114
1.5894766706962025
0.03618813384511657
-0.042966162093307364
1.2549914383063
0.9054099456532859
-0.8376896813252946
-0.23091453352748395
-0.1100029241449309
-1.7917585808755543
0.8951619267297037
2.6617068003468276
-2.3594161233172577
-0.1347465079981921
-0.784926577729298
-0.2716620376262182
0.058789048997747374
-0.4224449822041977
0.4826385366857464
0.2786020234706818
-2.678150161510937
-0.14354356841130544
1.081330823399482
0.0029120660054062636
1.170028362298142
2.5461091651946353
0.07990544975762494
0.7025481603564441
-0.6010907531565881
0.9319109144932507
0.9973119446721088
-0.251874263875972
-0.767327929316779
2.8513377784394818
0.23830192953245954
0.8546369565592185
0.5179051217780117
0.13504742949358872
2.0991329935730154
-1.0486590824494995
3.896000791694111
0.6991884357020781
-0.016300836933214435
-0.6997793248829859
-1.046594747379839
0.7171014597028876
-1.0550730140595286
-0.7522901845850174
-1.9621888123352142
0.7045082893406701
1.0087861694951483
2.8733843058933273
-0.31301172913564035
-3.2891104095508665
0.7993042505129893
-0.22755554533925532
-0.19520778075573464
-0.07731651178779586
-0.5927144991394433
-3.9792672786181686
-0.03267925836424431
-1.737906153587869
0.002557177723795767
0.7037598319986008
-0.2220206440941668
-1.4128201159021656
-0.015451145845856606
-0.6704674901017621
0.49104713401423017
0.7547502438421692
-0.5504423263719698
-2.41094244925209
1.325043479493432
1.430917247296705
-0.5611330765180943
-2.5529147686076623
-0.5511230838593882
-0.8998902419068409
1.4131530682970979
2.2669193309415885
-1.8527920029441485
0.8571608650410238
-1.647312735406576
-0.32100198897477217
1.0697756948025055
-2.3242929159931425
-2.362230499816147
-0.452150044657571
0.9657932470040802
0.9124110272562413
0.3106704707910761
-0.8877503374948887
-0.39846588058319077
-0.3637815477980245
-1.9719750677230192
-2.3694217027232205
0.9741635036665868
0.7131499371709684
1.5578998253631775
0.2452167799615157
-0.8797659771247861
1.5076728320117483
-1.6087180373704526
1.3234917791019405
-0.08912367259633497
0.004872271656985838
0.34254932575169517
2.451271700900116
0.7846776708012112
-1.05221162976644
0.6290989238967493
-1.860055194496792
-0.11729160085981698
-1.3130389912621157
-1.0506415086421872
0.7072146870302222
0.5797094624397573
0.4177602979025086
-0.8415009874951579
-1.6462544489758417
1.5927500636341476
1.0820130024686236
-1.3821534714010444
-0.46740942083160053
0.8740409806453168
0.17284897275461486
-0.6930857858709847
2.1083781243660695
-1.062365297272773
0.2007698750587963
2.515759583287708
-1.9041970963902348
0.7078339419943466
4.278584109988492
-0.7784547662787609
1.372742131012062
1.0274549921365943
-3.8384658157358817
0.37542168292663547
0.6343311423588294
0.13744789874480834
-2.2979309765787956
0.6220722566473411
0.33165295050382104
-0.5073689016606001
1.478139826275612
0.44474457517273075
-0.5697436114284256
-0.4729488013395059
0.8761378414611399
-0.691621083889972
-0.48492861699949663
1.617239570118359
-1.666961073318196
1.7759962458833332
-0.9310827556634313
-0.5303419486889644
2.024211956611197
-0.8720507647179083
-0.6664674135681649
-1.3602530897581566
-0.7826197711146833
2.244239617988271
-0.05324435847290468
0.06018983936985763
-0.3767040924374639
1.3623520213246496
0.5493254695175971
-0.6447474117178001
-0.7324433485191973
0.9532267019869982
-3.0148676956553855
-0.15337032861586491
-1.0430593142233855
-0.7921962384916785
0.8677339007665692
-0.11992141435796362
-3.7406628351460034
1.356679823249723
1.961203469171981
-0.051537334229291965
1.744780763118817
1.2041724806353198
1.8140192392206456
1.3548467542954234
-0.04455667104250795
-0.2257513826301287
-0.08763842190909482
0.22946465479727826
0.20627142568112486
0.1655801340209503
-1.4202256039933843
0.43799698436022194
0.9297827918382896
1.5104582556420703
0.20395020822184728
-0.37412795220163914
0.19048487028748723
0.31135464645201955
1.3189268263748533
-0.5803808342152285
-1.5946086405837057
0.9920695218788561
0.09074313625085009
-0.13705174116302588
1.652028702795267
-2.1167985933746185
-1.6337724282386707
0.29397954395510356
0.4242537845247193
-0.27765115914127464
-0.3799990843282033
0.4461603502798438
-0.5716601192907225
0.4327466603349538
-0.8044149830117664
0.7011744994269826
-0.6733846323939494
-0.33668698850192885
-0.1099155011132546
0.3368948680392715
-1.6944018791858981
-0.5124996585923783
0.8703315833476057
-2.806066828461646
-0.8184600269320921