0.5930024397961086
-0.2643154571390905
-0.7303360924148996
0.22489779093810636
0.27038509756668194
0.512621262927762
-0.34023254996971064
0.23619287797287325
-0.09797168233777685
0.24759536193200896
-1.167713075735569
0.14113141721128297
0.5709072007860838
0.6881313020853426
-0.22457780545187778
1.2468390815813617
-0.246214156469848
0.2367790789462837
0.1508586963706921
-0.24263639597394232
0.1760821072275235
0.11953673198419734
0.05444376465608671
-0.5022673079739495
-0.15292494177732383
-0.3131163081074434
-0.6251583754474219
-0.7411190816048105
-0.4788859447002534
-0.2712940746272241
-0.21772155552466946
1.3972956610527687
-0.5477086171699032
0.3935289650321909
-0.5115263115045828
0.946268034332336
-0.35096609250820077
-0.32109806539577335
1.0461115816714475
0.1806067645989941
-0.004182432388155325
0.6902117412619879
0.6520662113615646
-0.7538770103560136
-0.16993687915642364
-1.0786660924623972
-0.600041273865334
-0.25764451426295415
0.6838032582782954
0.49456867862678566
-0.675634770258086
-0.019369155551920703
0.37874519192629086
-0.29798972822277314
0.6404873526050744
0.7490244104952944
0.3803826856018428
0.48384652345232804
0.24299773097026398
-0.42395658972982553
0.33642135340997353
-0.35759841503756096
0.9883902730165722
-0.41499656718412514
-0.30533223433103396
-0.19796672948382965
-0.11323023872981904
0.3289079454102247
-0.6590205958887172
0.25435314884406235
0.4704631626507105
-0.29019256900900825
-0.17315652147510235
0.5486972143227031
-0.5402799257921582
-0.3241329172175837
-0.7418055512262798
-1.3615245295470533
0.8522177817588394
-0.02296330463352872
0.055023206210247644
0.37123087906098245
-0.3000950173582631
-0.6618854633290981
0.6445159014195652
0.32467982058892986
0.16370754259738235
-1.2951425495436981
0.11988053722210705
0.26006441815481607
0.2183749054860962
-0.33664521323957974
-0.3278867392553265
0.6751763132669926
0.38358630531681603
-0.6429663964109845
-0.256480441236271
0.9683924314586139
-0.4642146812761564
0.6966427718556593
0.4514577337207506
0.24266254370823825
0.32258329024598875
-0.21934563902138737
-0.48933104742672806
0.3597435783740025
-0.16467112147786706
0.17314159711628155
-0.9664159733713975
0.7318279108280004
0.23437825166806142
0.23044424228215543
-0.00739455084548285
-0.09007845652852652
0.33328053414299813
-0.605904978123589
-0.2747809480655348
-0.39404709641898894
-0.48255441890717227
-0.3339778802532094
0.20952418771908707
-0.5010255172196928
-0.17615286900693675
-0.6499936780659198
-0.5997516467270996
-1.1972827541824382
-0.5281667546066524
-0.37244985414793397
-0.25052197758148725
0.7115115527389866
-0.1937627810195729
-0.8261924182331085
0.5216384382782949
-0.6669278557455549
-0.5014550578870187
1.2143601113831572
-0.8262401658195515
-0.3190097041392966
0.5333495800409112
-0.007645410607994722
0.7383451334856628
-0.44896831808132814
-0.1265995975066209
0.406427506269105
0.7213298223212128
0.6601958281432423
-0.5995455896545214
0.09836743248777158
-0.5769106904459927
-0.6724640793312522
-1.0773463932398741
0.14057334135171545
-1.1957218053982273
-0.1789529568113956
-0.031595103347241915
-0.4914620789327739
-0.06268568347095554
-0.48165027857726506
0.1378870891548375
-0.8818503316253965
0.5057079064756436
0.8019207211469125
-0.42516686471627385
-1.4014927799000496
-0.37609238757285557
-0.02303290542243161
0.18386405474175638
0.2707510614638523
0.495188108587617
0.6697173266914819
-0.23146793159563317
-0.4542632114637203
-0.45401590953741455
-1.0993530950266535
-0.5319375256724717
-0.22859104428001126
-0.6056837535623274
-0.02311038046300061
0.08604944996440472
-1.4160674019544166
0.11904122456827043
0.013707709087240345
0.12290086228681549
-0.42927052078988265
-1.3224854462756293
-1.2706620562520423
-0.778654129710199
-0.719932630119718
-0.22638227138335235
0.10453134102494163
-0.47738236972462783
0.5388425893008465
0.524730560797385
1.287585178098255
-0.23295696507287944
0.6335979803875784
0.5386658686688559
0.5374074293235085
0.763633645125228
0.01817280168557986
-0.7198910857665681
-0.20473561095359846
0.5591527861389237
-1.4725162262260043
0.05375187524137905
0.8551022704038608
0.12038748234468688
-0.0594283953541665
0.34043784425903534
0.05996118325865854
-0.2536528162887043
-0.42559198475996984
0.6940767595599537
1.0116760255228203
0.06728455899306215
-0.49280887977928045
-0.7831240010981569
0.9268355697828985
-0.12822298020505307
0.7288526672464917
-0.5476298427518367
-0.9686909661372868
0.479688955019248
-0.28241776473100366
-0.02917674451217739
-1.0668958253663625
-0.8040583705767993
-0.6060427725075466
0.7233517180730932
0.0985890683966576
0.7968055239350165
-0.08504086156426367
0.14581337392595656
-0.8375379464655583
-0.24613695221184279
-0.47918994889813005
-1.017577433376005
-0.6549081865002363
0.04162365657624134
0.17157643012080637
-0.24949957188707383
0.7560951414974852
-0.544333026063213
0.024611292748004596
-0.40702456671559417
-0.5875092829054216
-0.888051707901876
-0.31845769074695773
-0.9325624203938375
-0.36307424139556427
0.696650049149511
-0.5904672467142436
0.05846615328082089
0.2377151917923762
-0.31745213136485356
-0.62453170113913
1.2577881553910049
0.6367473247250304
1.2556782308095382
-0.2232045806408775
0.0774119876980987
0.4142411138913715
0.9620601293208848
0.035291893329904775
0.19793958634610898