0.2482636789767047
-0.3219700051705833
-0.39606076627351416
0.9397990658819261
-0.31743217570403953
0.12087583270309332
0.5442559242733559
-0.83868231677053
0.22840099930323443
0.12730690883688173
0.24584541595680148
0.212135318957661
-0.577475512498362
0.10067589242689345
0.056775071847898345
-0.9099766839614681
-0.23439487620982435
-0.18543487047150653
0.19392927170891
0.33818418077114343
-0.7473973184011271
-0.40365835934601024
0.7000116624949111
0.49948386182249316
1.7934852611817957
0.6457489172500825
-0.49043914781702586
0.24116031972839247
0.6994072527036244
-0.15364405600967287
-0.31587085172938567
-0.012169370365314576
-0.2165706289447397
0.08900853849305825
-0.010217184524267009
-0.08388812463501613
-0.7422682970980191
-0.1334860700122748
0.5225075355075837
0.07188639375605291
-0.34884318523710584
0.26744844550293423
-0.25443500276214814
-0.42545804774936435
0.10078649233022445
0.0056674608863794135
-0.45836687701587164
-0.6416664686903427
-0.09868829334990115
-0.14105643716907634
0.7883602491975829
-0.06301111168179808
-1.0305395299974436
-0.3969025754125799
-0.5185943675779968
-1.0365237141512469
0.0426932826642103
-0.025951509100626307
-0.6726446979391303
-0.3674823409364999
-0.9591408579823673
-0.20927154296005895
0.8810922733188965
0.5283742430090487
0.1414025156577767
-0.20997477377267573
-0.26277588484906844
-0.5532922177045785
0.46722023047442685
-0.4284659596555756
-0.16136916724120595
0.2579793777905507
-0.025392729063238306
0.4870648211912644
-0.5583725984999741
-0.0046300070491440415
0.12396480724387898
0.32713175768670816
0.4291447254442571
-1.450206392806093
-0.7002733996707176
0.4134529324190244
-0.11584046367119785
0.22962391764162415
0.37705722628570204
-0.2941435871752742
-0.48011148604693543
0.2117932328421702
0.36844157412196765
0.18367828411293327
0.06687222462996231
-0.012674276995970565
0.19683230189670956
0.1422903659745371
-0.709198215638205
0.23156805684378473
0.24432926041952777
-1.2238183561794063
-0.6711949551458697
-0.222258940525413
0.8025362691634286
-0.26730147199749826
-0.5070092124861926
0.06458093109926505
-0.2041214921279505
0.6723895749251297
0.0006780057680488838
-0.49186907326529755
1.3165514227184645
0.037792585402338735
-0.00641464126780994
-0.0909370266214096
0.273621928377935
-0.20188815413737354
-0.33578658973924835
-0.3540266275947742
0.5086126281671821
1.0171166850855191
1.3226456246329787
-0.5682975757427828
-0.054313451402696875
0.34697416181862206
-0.37452883279417876
-0.46912621761849044
0.4491274522790586
0.5246269098800158
-0.14492257908879239
0.5158543291752096
0.2161587280301444
0.511701904021158
0.7590080244351625
-0.22051467102569206
-0.27436025543054415
-0.2805311257378485
0.18613793861522293
0.34138464014047676
0.4586051593475583
-0.006624226132775704
0.05642320245761653
-0.43621849033272597
0.7790560862491168
1.204815645937181
-0.30655526985939197
-0.025144284523434264
0.17391361505039288
0.5584438450151564
0.7674464255163551
0.12894150676983152
-0.022045911362617965
-0.20091963586307643
0.4549489785118832
0.03886685353805991
-0.4419407312515994
0.9955108767985532
-0.03909139799932685
0.2161606572264133
0.23935899431308533
-0.11617313759715694
0.8990935592360265
-0.8503531121279756
-0.3543605304632149
0.7387257553603073
-0.017261009374342384
-0.2552438217637299
-0.7878211202359074
0.12241674858942522
-0.6809078706978259
0.17323663576927414
-0.3342671020310767
-1.174508070852974
-0.5172029406686273
0.0005435194668726717
-0.02333247446404263
0.12051177131916771
0.08538793951249415
1.224691898287026
-0.2966655298586306
-1.1680453274602407
0.03917663918281637
0.7523187997158989
-0.7518534652594755
-0.02672202736887125
-0.68637322980842
0.7180963273383345
0.6807479863766143
-0.34122858180735227
-0.08962083311873772
0.3103769393117045
0.8144310439639909
0.089370943726378
0.0650754075480312
0.6301694759865374
-0.32518526408955845
-0.8324232497244158
-0.6947392798504266
0.7738282066605744
-0.24610200252887174
0.03801380578832447
0.407608801091499
0.4516039344704557
-0.629830859000839
0.6131012523364379
-0.9648654377542742
-0.0020651429964889147
0.5467734501169464
-0.39354473252066163
0.2368436686196025
0.13357682198512355
0.1720965813318587
-0.0702507150647546
-0.18301979387187706
-0.18767286654532464
-0.3653184581786695
0.6946874552404716
0.39639193808525675
0.9097994610963589
-0.03775129646574906
0.18785317100600532
0.37339971266657584
1.1005875551822795
-0.04360162820559191
0.07354894816298761
0.582370648908265
0.5483405357208823
0.8253612965297643
0.12456106472403097
-0.5452785225569424
1.7142851468238343
0.19973493711700427
0.5761881806253484
-1.2903907639656564
0.5981652248937102
0.48381657667057293
-0.12705667764840628
1.0328494251536273
0.648842143833522
0.5606620205930245
-0.3984502724379701
-0.08745974920370586
0.8255450350227455
-0.34111307255767054
0.16503700668354576
0.2753543159731592
-0.6905803292541149
0.30836970737086233
0.9449795554072423
0.1891463195586042
-0.36230987096076284
0.7459643522779122
1.2416535564979683
-0.12107792528774708
-0.9365453180082923
0.005814727365321182
-0.12933395782725973
-1.256126586665708
-0.16548417867297244
-0.7779681168320426
-0.09360443914710685
0.5138114869931458
-0.8431790198212368
0.47804210403965924
0.20648767685669212
-0.8070324345972985
0.18546612046556527
-0.024957180149581162