-0.3082063459425697
0.895019112144209
0.05513980275370356
0.058250445865261694
0.5334462686516556
-0.8936331936035754
-0.888118654180306
1.4159588805310643
-0.609336762040243
0.6681537316143011
0.015314276718874469
0.37881642244795416
-0.8506310788708895
-0.3154245316530566
0.6883619898671067
-0.25390249667241144
-0.6900803642140279
-0.10983291046560327
-0.3584674358897477
-0.17605842533106364
-0.33532213034894676
0.032085391420489454
-0.015683231007856763
0.09902795066779875
0.6968619641582117
0.031229597123699798
-1.1814304113363157
-0.7951789086696819
-0.7458012070807388
0.3450154932348438
-0.5775840899046532
0.13164046741329868
-0.958426820010453
1.0856507496478782
0.2182679787246306
0.640335015060656
0.4499861194487141
-0.05371273738989829
-0.0907727262184565
-0.024401419126447194
-0.0715313887039079
0.6859084383353419
0.6629860759026731
0.992208999087583
0.10373157002357282
0.3119770544604655
-0.6078821488469354
-0.23898268994704708
0.16072119071892288
-0.1534363668946444
0.8748331195211096
0.4226479819793659
-0.9387755897192605
0.9761952089170853
0.8541641049865527
0.011243756738207301
1.0679994462515896
0.5220587294183283
0.4313478225503049
1.0661552791896556
0.5739933028057449
-0.545413296965638
-0.8039652015299269
1.0039190905165907
0.21732658279719902
-0.5247754636753375
1.3946679972334528
0.5042575181336924
-0.33446901361765996
0.5005474725800422
-0.7557836732044841
-0.4070347836888044
0.16525961512023024
0.34309348106004883
0.7436269560250689
0.08443956977007885
0.5728178133324983
0.5020519481487907
0.9943683222522138
-0.5410338516107223
0.48967751001657345
-1.1739702869674205
-2.156430226392006
-0.9413110826916513
-0.7562185481737288
0.16204218370300683
-0.5114505964999436
-0.3598722200051393
0.4766855062570762
-0.2185198538854246
-0.18668721038139952
0.6861638114832002
-0.36466878996270413
-0.4500845216376139
1.0948720541901986
0.8795396806393372
0.111851367541419
0.09238979002661171
0.09547139796600308
1.1417498784551283
-0.593418665483904
-0.02689124498081548
-0.03486370840488198
1.1188100264980343
-0.24343437749372018
0.5580269484121891
-0.6951750745398826
-1.728551288314826
0.3884870355032297
-0.5553996284592583
0.43538145760072194
-3.129236845286785
-0.5013564997614981
0.19923817918209394
0.7157935778579164
-0.4171256493768563
-0.07434752650953658
0.266943428689318
0.35135694374212223
-0.013200993677341379
0.32341369323974223
0.04856917067485558
1.2379373864992287
0.4466721592895778
-0.47548164231073065
-1.0210253587508127
0.3653724140462362
-0.5990566469125518
-0.48826034028966403
-0.409778269454828
-1.0954740801469176
0.2688043693447124
0.8376266427497299
-1.116605366902053
-0.04874971993253892
1.06502157452475
-1.4480631234703072
-1.0363851350020608
-0.8415835125863539
-0.6325336589693089
0.8672341076562735
-0.09138046008485469
0.9237554138042776
0.5850132679598863
0.35499457530657386
0.7176732320255697
-0.0792661435520689
-0.17358332658666314
0.19766747924933234
0.5843194806020561
0.3595029415919475
0.17396537734778256
1.2857726654417108
-1.3058849931495753
0.1796217391119871
0.08050370448150476
-0.8377667969617157
-0.8430640041521757
0.20416137321565803
1.0151838659605072
-0.004870383599627048
-0.8360793834664909
-0.5784486602867759
0.14070240070976187
-0.9904872647974517
-0.3546104599222837
-0.28890947668828293
0.24612369541507959
-0.33312893701756735
-0.690046486118954
0.6329155638921067
-0.5047014326204828
-0.32628171209558254
0.6028386050813586
0.30761820946031954
-0.30319659627233525
-0.044068210699046914
0.1279012822927018
1.0255640648004996
0.8123320233746294
-1.5542522919069184
0.009666981551504111
1.2229677169831201
0.9435972961803152
0.18197589451805324
1.625237632522324
-1.0840367084430427
-0.2054814033970131
-1.3027771742622851
0.3349237893494983
-0.1876866702890496
-1.4881942866387567
0.03414707958350148
1.3636589715396956
-0.49133671956204406
0.4636799030413526
1.0399244732927642
-0.9973998265297139
-0.0008448172259344355
0.7831113178032334
1.2921258282643011
-0.8639349041287536
-0.31594371120352593
0.31018231276745695
-0.4886816931037339
-0.5131656703953781
-1.3833515747611536
0.6518069241890594
0.21542643284528884
0.033847706948972364
-0.2567089311483809
0.12499377357081132
0.6932756687491861
0.6278174343424658
1.1933044844321246
-0.9515998058315465
0.21527815216523188
0.5339739901936917
0.7996162197754044
0.10502860789210325
-1.0466686124780658
-0.46976754462461556
-0.1790357692543469
-0.44374961059868845
-1.3301641185187778
-1.0497130248954498
-1.1190271280742945
1.2265403683572174
0.47096977761249625
-0.19968457463286482
0.45378354131783083
-0.03635626559193397
0.49801675929104017
-0.013664936763530373
0.30086554974860363
0.45273940454559713
-0.3065472743109008
-0.023795373638197025
-0.26985535436408503
0.42911494688967616
-0.9989754458943332
0.6290657181111848
0.6480932586907555
-0.8624321328445265
0.8450499074071851
0.6292817578129362
0.12483884125145876
-0.18020243730715269
0.35038062021769456
-0.3895771753717465
0.09732698107027046
-0.7056012301269149
0.12755563057944208
-1.13727560973989
0.38955671156728744
0.9600412189924764
-1.000298413620003
-0.09395012525074523
0.25859578560837676
0.18439051733704595
-0.8287836185376162
0.3295579550326463
0.8476113174551372
0.3181523298884644
0.6583974038323602