-0.7446063452947722
-0.9151782859090744
0.632447429865237
-0.4059360830111443
-0.18760493744898213
-0.2051063537217512
-0.21627429056998357
-0.3187401785591389
0.5510422873872882
0.7937068062490786
-0.27776872792746204
-0.3713167307606938
-0.5122499102829672
-0.2938947096225081
-0.07282460481421893
0.5831747883089259
0.12154153187799396
0.42785479003716675
-0.10117333635683458
-0.48637718852934375
0.2792664655529561
-0.5561228944368155
-0.5948197081734232
0.14783160044070376
-0.47948598329070735
0.09268072393529453
-1.260921596552155
-0.6578446800538253
0.8357670705006601
-0.9122597594573089
-1.196147448849799
-0.0833520527854855
0.1119514752301811
0.7442645094942977
0.5429037757270565
-0.619734773870018
0.2491009757507603
-0.5026742239749663
-0.3829038616906726
0.22799107323745238
-0.6275259908719356
-0.8270134532447325
0.41927252634314816
-0.40147850441588107
-0.44275975059008377
0.6404106184437643
0.2594330585288701
0.47320664251331224
-0.25000737515260885
-0.1655119634548027
0.8485871500293318
-0.46073881459287497
0.12379977646990664
0.2798328427556419
0.18845273767924675
-0.319136704622166
-0.6333200760099535
-0.9676217558014957
0.9993951992116015
0.1431163278623125
0.4519924812217542
-0.4267053099598279
-0.27304318424083784
0.0128362209609868
0.5866168963636997
0.4161647960894085
-0.19242348280534988
-0.5953103414647097
0.2540459804132984
0.3172713863755719
-0.5455700550210241
-0.16957568383304256
-0.27656012126816687
-0.4012053707208866
0.5588533742793639
-0.45919324701180647
0.2612622976903984
-1.3648167064684564
1.2403853761550445
0.7229954437420874
0.2630312138397924
0.5588871088213372
1.0142938667866803
0.4311558082457018
0.3287224573855609
1.5170621247284597
-0.17270663759854543
-0.8523866818749535
0.1937948398878219
0.45472153156953476
-0.012259562860601647
-0.6646500211600772
0.3203165932009384
-0.7105270231341002
0.4579128066375538
-0.4820953522852455
0.9140267570174482
-1.7030032467085006
-0.32905254320866867
-0.28435738988449655
0.6806757316961978
-0.2444218100814397
-0.47424065648964453
-0.19909469522526146
-0.5215980227542418
-0.016445220945908154
0.04659223100888345
-0.8334891716491493
0.4061965195718151
0.027781253693308867
0.3365653225773391
0.22742784088573204
-0.0648880242923437
0.013587353023651466
-0.485323559897165
0.05722251934996139
-0.19601965656885192
-0.7827246285367708
-0.12428940468599275
0.32461836742869427
0.3423351907830808
0.251433133514725
-0.4269303658831198
0.34133441366733663
-0.8646080702672896
0.9458716301762826
0.3629192821916505
0.030854726744712645
-0.6767144969439738
-0.4909532701803876
-0.17932798431234648
0.37580826909154774
-0.8031811793241592
-0.2693551613816997
0.4200809724215657
-0.6617973447946949
0.2143909324778821
-0.22877033720900264
0.30835983801020306
-0.1593656484460582
-0.6407420271720197
-0.12401461396640287
0.0030405739976461553
-0.17492399466827366
-0.058848007585598834
0.7327089148875476
-0.48220193417130086
0.22701001826842393
-0.9663114860636756
0.808391031895729
-0.22495932794820017
0.9857436535710231
-0.020384172864152228
-0.03945535572168912
0.15919628881020956
0.7618917009724785
-0.6693190580947272
-0.5161705990857408
0.8097483793659129
0.09189877843204336
-0.3081414862731968
-1.088182721942893
-0.8338180311522179
-0.27862928790262187
-0.13055693957977393
-0.3046645828873025
0.030126337950959734
0.13368797662453424
-0.059964471188092935
-0.011018205803842558
-0.5110290350356034
0.2853859668261291
-0.10507395975294907
0.18414457798908565
-0.08825766538947435
-0.5987344356047685
-0.8394016139522523
0.21703674633288192
0.4718882284653092
-0.6046961637349743
0.12429719815842116
0.9120662115243406
0.00520850268174336
-0.267137871619858
-0.38323603272569384
0.9665312113979139
-0.6465978485275009
-0.4559615133319553
-0.2046939550507717
-0.5842291022710567
0.24454351915876416
2.033959484727365
-0.5098444327980004
-0.01953787676882221
-0.2872939157001216
-0.47667832487477263
-0.734861990324454
0.0006531732760266529
0.8196018610604541
0.7702896252395572
0.6247864509757443
0.52806738936487
0.5827725205899601
0.742151902654083
-0.2735116642342412
-0.6939242198516338
-0.307220447410273
-0.3991164843301441
0.6754821417275332
-0.4101295272500429
-1.368976723926417
0.1096101697578538
0.7243558101851029
0.7490490792407701
1.7933285037049351
-0.5881718657815488
0.027786445597738706
0.7959630733792351
-0.9725010175767715
-0.13199480819677736
0.4388289240586664
0.34574526335900696
-0.539432844595872
0.19032989993786117
-0.10221140629099508
-0.11646140411483147
-0.36325386515442853
-0.016440920366011202
-0.41082509197849426
0.23966029385848708
0.5179156048720076
-0.5953551333088527
0.6011387494100375
0.36419593922674
-0.1477682203235835
0.4444155386519149
-1.0885337227979859
0.8974044819344802
-0.31765669363565896
-0.5535289598955664
0.3587460248248632
1.3243048335854548
0.8250252549255166
0.9586719753462715
-0.16737864516470138
0.146083159652607
-0.6136904793100577
0.25934574337488214
-0.19025015793678657
-0.43064591061278523
-0.5461546172161349
-0.8054530489381465
0.4783600512745422
0.8365910772146261
0.2296095154940958
-0.18087914848548725
-0.33344814002340323
0.3290783109864066
-0.5723728434665989
1.1405910194922497
-0.29482731410253055
-0.4794573646298356
-0.47851328951047023
0.24982880256288933
-0.20492372370535947