-0.9359975094823318
0.48379092482130853
-1.787558254094275
-0.49210967066155775
1.0399812097779257
-0.21397477413500823
0.579147944231609
-0.41886903152726085
0.6435518513475668
-0.2558582269411326
-0.30410969169977375
-0.29379065443799496
0.16111408848115444
-0.10469878594368706
0.38865301215522513
-0.9071420448223395
-0.6586717805782204
1.8246485149969065
-0.20471450876002906
-0.3815780669568499
0.16740935351823308
-0.33010877937882793
0.112160805418351
0.9103892332722827
0.3722698686418145
-0.45576984181423463
0.12746193360170058
-0.9495898312144488
-0.5282128187356528
-0.34973463426415397
-0.07085152086768716
-0.7112268708918084
1.2511576541057474
0.3845059050584241
-0.30569168012022657
0.08983250028464905
-0.03285501699628615
-0.5087395440337762
-0.15696570505291588
0.17299331652013264
0.3352796478539773
0.3518067733227018
-0.5619946393339955
0.35776530964379927
0.5483496125225901
0.0894571152040047
-1.2622375946230064
-0.11781736407315024
-0.024618674349520978
-0.40259000315475646
-0.46896174037749594
-0.586024022845157
-0.6697452517133609
0.09592629976402495
0.2843457966083952
1.2535308298423922
1.0903222995305815
-0.7340755490481036
0.960091467627771
0.0895888062820549
0.47508893698870114
-0.4876521660927141
0.5334744344782772
0.3624521248223051
0.2504948334020923
-0.8261431591182077
-0.6006241561762018
0.2619740484566634
0.804079637271178
-0.5336909781553931
-2.224769535527366
-0.7204090014249849
-0.2697850475521203
0.3738895835082901
0.02302693137933668
0.6761843952159398
0.09886714328066432
0.34432649577659713
0.37831661760719876
-0.05523650683422654
-0.8488604338540535
0.3844956669261775
-0.09428152260483208
-1.5705798813522922
-0.7682028867908934
-1.1856339154288222
-1.5271549275067038
0.6517669622253646
-1.0432393034928804
-0.1392837761477968
-0.06343749520498876
0.07213890045686414
0.318362361721508
-0.6236557986605704
0.058102021063418274
-0.5413699742894519
0.3745693516525499
1.0878018741021087
0.15601504497202118
-0.2033067911121905
-0.24467848920681146
-0.12885183274689904
0.19223067395556417
-1.2100869636895497
0.20050214439083108
2.0455947644836403
-0.18432653219451367
-0.49919719076263325
-0.7567480898356318
0.07257278035779643
-0.45803859389208296
-0.31493428693828457
0.9061561295501717
-0.02850974679608942
0.15471383190763194
-0.8883470899654305
-0.0493550354598872
2.0639426445935474
0.5144621177254206
-0.38320748737387866
0.5416576887189282
-0.5270273364934575
-0.1828926484102687
0.7632862650127765
-0.8453658204814698
-0.8527526719700725
-0.38183755838980754
-0.5208995778754337
-1.3158177725413127
-0.44797353559645886
0.6924912870430371
-0.15298387733830593
-0.16667832195199955
-0.3204602901729393
-0.4973431175865547
1.1583638779567031
0.5779372519833692
-0.09275629675191752
-0.29070024464974464
0.5360969809692294
-0.5131860402328647
0.07024617047807635
-0.31472981916204923
0.2158399120569523
0.11647632646709208
0.10103119463726369
-0.36285159783003473
-0.6090925003850683
-0.015910927151404325
-0.0906153134978577
0.7790643479700897
0.08014671934159365
-0.1331260926149679
0.028852646828622514
-0.9724775728223636
-1.2352202671226964
0.40024600126658916
0.38127900653994307
0.4330104294466163
0.6781855950849751
-0.2414850318761468
0.6101538651890779
0.06484641308269534
-0.5243677151192285
-0.7720713698185298
-0.24211620927917155
1.158687919219034
0.4211456538787659
-0.4120931684342297
-0.30339561028035866
0.5261599496999084
0.3267828734316826
0.16237910111380244
-0.4739115755665814
-0.024342563032660372
-0.5359837615348911
-0.3843831571521635
-0.7419538501503926
-0.2111598906896885
1.071672194122443
-0.6718879902364839
0.5654478130632524
0.551367693236163
0.1514938166919345
0.6395789649782081
-0.06064862819720901
-0.14514570857684728
-0.10948910157068653
0.15559553034379392
0.5169280766675544
-0.5566888450666763
-0.32747416538508034
0.5675356100960185
1.411929205601893
1.8491986050903102
0.40486520737180476
0.5955324811577926
0.25796220451564733
-0.47376801376661815
1.2133083077082345
0.168088902084368
-0.8925729056161589
-0.1879867807003877
0.38747063034827417
-0.5897867589431486
-0.5877779493025854
-0.6655852863968084
-0.21226863062766266
0.6441461732404765
0.4304822405814805
-1.0527292415273561
0.05964753541246307
0.7805958858839539
0.09413229076624186
-0.1851735578705074
0.15240974560323267
0.1058636044520879
-0.5158639363450095
0.013624741634627844
0.3459437881611719
-0.9512980064792882
0.40779589016928586
0.0016424732432488293
1.433390358210161
-0.315285465564193
-0.09629297006582874
0.6905227635435016
-0.6458827293949405
0.26901168747286686
0.2809437693411213
-0.574813312613549
0.399719418371209
0.04413457116990123
-0.8124440461400666
0.590512604435917
-0.1342344015064017
-0.4190405308790126
-0.253666699751217
1.193697354427464
-0.5393781666000712
-2.212022763762053
-2.412980811232371
1.4266947303751696
-0.35988925404638006
0.9367826506503669
1.1231224044594934
-0.8782517791294687
-0.2370053796774123
0.7661545132901267
-0.6703286688139477
-0.5290993852939858
-0.19868467268433865
0.2893464171961753
1.5052699018113134
1.2486088714801067
-0.5105125853589266
-0.9419893082004797
0.6211157902234984
0.3637057542039052
0.6389377972544137
-0.03495167819179057
0.8197284472325737
0.41294400330498515
-0.014493571149477191
-0.5684379797382428