0.634863486166215
0.15264453752794013
0.9872489985193128
0.22596949890159929
-0.3955730253902837
-0.36576210789156005
0.6906340406758972
0.09809255077407536
0.3907388002483129
-0.40984316306022767
-0.22862708420836256
-1.093873307665374
-0.18763363555876128
-0.546651379105138
-1.4312317777179366
-0.42943020907771634
0.04296154622811558
0.04544134748548802
-0.7314738566323378
-0.6423278718532202
-0.21136105991787535
-0.2509783263580946
0.39405125758809934
-0.5311449353751085
-0.5660332585786896
-0.07043812456605737
-0.3818082099811485
-0.08766615210666848
-0.15476438291198616
-1.3376559016752194
-0.10835398163926237
0.20791115879832822
0.667971046039602
-0.6022129028432965
-0.7822882227497323
0.1708748755567458
0.2575015471186538
0.02502826929123414
0.4624560813564821
-0.13060552929240477
0.35231421740893554
0.1641045441035352
0.1228782441836532
-0.40199851880141657
0.6056783391642248
0.5560559027626257
-1.101699462777299
0.16748167680983683
0.12438767473898843
-0.5612492077399551
-0.005664386123742315
0.27743911136097793
0.3144999985060768
0.29999721844112764
-0.36350239210733837
0.13129885829959176
-0.2717587482874651
0.2761373665124873
0.7548697547882376
-0.3464223681302881
0.26858503374091874
-0.26524088887783603
0.08629752521473828
0.23825837094927366
-0.43472273447612175
0.13260598064408985
-0.43318166198190944
-0.08775436096734529
-0.19628724868175862
0.46565886237335874
-0.4368315605454507
0.11642925859544212
-0.4673806317823161
0.39165537235318443
0.23645422824101575
-0.21348816884512084
-0.28624690355996957
-1.2819538741712013
0.5872113756988252
-0.1569117120396801
-0.16493696439286853
-1.1998083778010842
-0.06010798215452784
0.4262182821244352
0.26862473856574076
-0.3076654317201856
0.3938918055697654
1.3370850374570922
-0.46502402813021476
-0.3772096305826787
0.17011984061292001
-0.9937114788121035
0.18531052285565963
-0.7345936492209985
-0.1998055800475344
-0.0687340057261035
-0.4579223517234793
-0.22648087068265038
0.9701769529636032
-0.6081096073678742
0.1084010341340389
-0.15166134817255378
-0.5204958653677776
0.1823253581843815
0.33226644899641705
0.23859121415508242
-0.6452406228146074
-0.2352631367538906
0.11230866146738473
1.0570683625259079
0.8954419951750052
0.17156792868489854
0.47732855947028124
-0.6756389526368513
0.4129347498103422
0.3893038691664016
0.44089396632696065
0.5633597098877504
-0.7150837299312095
-0.33907550575335216
-0.6340998814648936
0.29399397199843014
-0.32779211506401407
1.0577695857223022
-0.882006729626823
0.7035867688994937
-0.4852103141505798
0.8664833334882373
0.5336766403098516
0.19696027552817702
0.3875641473491614
-0.32193476451683417
0.34086012638711694
-0.6597688992040471
-0.13596367246425134
0.4403680554801423
1.8190337238062186
-0.08318600704491377
-0.4200214295365233
0.6919173506235143
-1.5365264218406558
-0.19929812239232667
-0.10210287810047547
-0.46365100477162735
-0.425022647011828
-0.33257047732421824
0.36798599561727946
0.438810883486956
-0.060932690267848116
-1.097731857826559
-0.20660966643845624
0.987399753095401
0.2274848368834091
-0.001398620979761095
-1.4316755043936298
-0.48301973194339065
-0.08948313241803652
-0.49292427338195255
0.3161118614609167
-0.20429590006299067
0.2120710467829794
-0.6005584793641999
0.4346823713044778
0.008508837956583182
-0.72666029190616
0.689475007498964
0.4127006359043311
0.1313280429193933
-1.2838639819829747
0.038981623985228114
0.8301474147163241
0.23312978987880037
0.22167503675549904
-0.3990928078227885
0.3763912198690962
-0.8705143142791096
-0.6014204056956729
1.0533274460315247
0.24413601207828567
1.13636588676976
0.20821420862141204
-0.2510223697364667
-0.9787200304599983
-0.5319643181202618
0.7221793334332618
0.22054904031756253
-0.34817810782342273
0.18302669112504294
-0.32585159497404714
-0.70709431688284
0.36275658766530705
-0.6129679416677911
-0.5231361898437614
-0.21535160577517085
-0.4030091436931584
-0.17016103110189673
-0.4817390247408177
0.24793988834594835
-0.7986604186668558
-0.08365246299911319
-0.5613814410496617
-0.07920114036759518
0.3022464666761938
-0.4631279747114093
-0.43960041898683766
-0.5430899831528739
-0.5781997855915368
0.5739405234824163
0.4901998327913213
-1.1374417621746922
-0.831104975047002
-0.00929483964531818
-0.13245557190691498
0.6066675988236638
0.5779606962529296
0.012530917503407846
-0.05953672311318514
-0.1586635748000947
-0.5782495094948159
-0.7506739221385876
-0.5769164064402384
-0.8438468461361144
-0.08426136669007644
0.42508506506027444
-0.0002632002228647734
-0.11049262167265417
0.2929226297327966
0.2679020222521226
0.3751423545739473
0.7475447404063611
-0.3443836203008605
-0.10805368645877084
0.08758870996648986
0.5227368182739127
0.5660277062753097
0.08531036293860231
-1.323612007984004
0.1692214800625208
0.5767664734653736
-0.29495513050190997
0.02433645874659613
0.4273022025064559
0.373078181054063
0.8980709334713433
0.16013011422323825
-0.15702973346674753
-0.6179614209974846
1.7756593212646918
1.1805875961904413
-0.2724712161882364
-0.7430901815016235
0.5674524833255921
-0.07166012558518116
0.5984553483377009
0.746978817992509
0.5050755034023724
-1.2209828811035877
-0.021373087018197113
0.9861563607235023
0.3306684638013321
0.02710530240040362
-0.41699333312019904
0.06682090161978232
-0.18530044677798302
-0.1305704353814472