0.49503550913147243
1.0088822496022893
-0.20022912014444966
0.7680603690992339
-0.6437084035188382
0.727369344080557
-0.6216182312722544
0.03741160046250268
-0.1517141412247691
0.47563000155355173
0.07245897603256202
0.7316573394595859
-0.11907043135021
-0.29822319051866997
1.0675301174909841
-0.36838920057701824
-0.36240324636750976
-0.4358941477658368
0.5643170545940722
0.3449984201959503
-0.46273517023266836
0.096883858338988
0.08586897778180924
-0.3294922594070084
-1.125926089848763
0.0758672051682227
0.08844016353957881
0.3805312530929861
-1.0712890371251842
0.47234545650429505
-0.0957156933402445
0.3629090247809542
0.3730151505181084
0.21267690271904716
-0.6465205029396658
0.15684308303979314
-0.22908516488614478
-0.7814407577618545
-0.18944664349647222
0.10344573619361318
0.4977614631735561
-0.561941958119207
0.021086456984487287
0.10398106697991549
-0.19043179301986926
-0.6075157825763081
0.512615826303463
0.8429628144778993
-0.6207573846602611
0.1003267620777839
0.17361297987403648
-0.47404022608151675
0.23776005054132207
0.3728788002845989
-0.46117953278944324
-0.061324489459628984
-1.1298157116866485
0.8027968221018509
0.38500699853363135
-0.41142083287775183
-0.2674376399173026
0.8314333899176733
-0.15019288300760103
-0.9917254446196269
0.014321574343554286
-1.121285327178134
-0.13802412956054982
0.8294403750126882
0.9069838922427222
-0.3610610845611516
-0.7393096400488784
0.28283561531685675
-0.37046780339832575
0.16994011553168212
-0.24879703393032493
0.2099658235483153
0.6105574642824818
-0.4960983257029619
-0.055422171745482564
0.051781626004607874
0.45010058308641554
0.37554993497302946
-0.3796298011645822
-0.698881816887642
-0.5212943521060863
0.07779243427734177
-0.1639150994405283
-0.2964930882803505
-0.05291825397432715
-0.23132135709895293
0.24156626108101378
-1.1109345897847707
0.7400054681130958
0.1342153788925976
0.08443675573231864
0.23362469827826665
-0.8359265004582042
-0.2557609809430723
0.1978464267810758
-0.28777838324708194
-0.7994886483399416
0.5366216136204102
0.35174919366760343
-0.16691084055784827
0.4135742740781899
-0.19497531594712464
-0.6737357720504328
0.19730734907335554
1.0793083992217376
0.48112477862196484
-0.1468189576291132
-0.06745514236626049
0.04533608578171715
0.3387864378237296
0.8930576975789888
-0.02877139077828683
-0.2866853517248469
0.5081182470871928
0.010499025516829658
0.45146218821648665
-0.5829646369247895
-0.8892837768188644
-0.14453219436719417
-0.45091117572314243
-0.1534780370360777
0.44913201021019256
-1.1554098758085505
0.21712256394201482
0.2468193202329318
-0.3997278512402685
0.9782323222955394
-0.09652445931374723
0.3986721119973393
-0.10560751795672749
-0.007916182445508818
0.45174452832867007
-1.2500432428590724
-0.05188548696836015
0.21452886954460632
-0.22542681466114609
0.09033199548272855
0.45340168788205093
-0.39701459845102466
-0.023878139306811402
0.605544208657492
-1.0955738124329006
-0.3389717191168574
0.5285984088821193
-0.3260332369934583
0.5565263795821771
0.012891796896141491
-0.27761658682660173
-0.199128717042863
-0.30955059992912903
0.22202447919762008
-0.4147290032567135
0.24663608124391417
-0.8819688544375509
-0.5754890025443167
-0.815125238802376
-0.9307309243894947
0.5667660639591718
0.2771767448866743
-0.7702417149525592
-0.14730974543578568
0.8145144964105778
0.1802307787561824
-1.054982637746064
0.774619511041085
-0.6953431477660228
0.05955459504210227
-0.4186162067696505
-0.0781723399554089
-0.043333541580413124
0.3835811128614015
-0.11855657011588527
0.4530281251808403
-0.21866842899271174
-0.5230120390722364
0.0743732496657141
1.4315416819782427
0.19546591838974503
0.35594449274949286
0.07711395675367388
0.8307652391287389
0.4602161656059205
0.036815997575349785
-0.05912279659564297
0.5106748945528898
-0.17251332906083316
0.598324677957004
-0.44273615002741934
0.1367733465503695
0.5969603967592872
-0.21323563269755308
0.13707101522922654
0.3155219866076721
-0.11092089127448682
-0.14549118807296516
0.7830158774211433
0.41860957720608316
-0.4571955122808783
0.26368374257886845
0.27454582598884325
-0.19348203255748242
-0.36806063285041624
0.34735297644968666
-0.16174093399041425
0.4832902893552309
-0.11624902646685335
-1.1866774777788298
0.05420936029425316
0.3200523192009873
0.5015371225298831
0.3199015042629886
-0.050643892817024805
-0.03135762015415554
0.10293483910076923
0.10266688017614625
-0.2605100666585602
0.33132281603806746
0.16750828217603428
1.2933968518935606
0.3359442389455172
-0.39659924232965044
-0.19386392505721856
0.5689202798518278
0.010483471716731918
0.39264425237474776
0.6927965047180823
-0.7315291208760784
-1.3895985027322015
-0.46850231332385645
-0.7830338294543531
0.7093700002722476
-0.38193031275450995
-0.3117293111594725
0.48096326382036325
-0.807087069590221
-0.8946123196923992
-0.6584712676980402
-0.36092482928901637
0.43501500260607184
0.17796377938262398
-1.1050055452569503
-0.23351178930760083
-0.7131050591108953
-0.4263133792481988
0.3129613133638834
0.7014693232486202
0.013502559250616629
0.1371188274098546
0.1725298517693733
0.6921799023763886
-0.06408367460564635
0.31653306299631334
-0.1480842493863569
0.309424585997289
0.006192543950571788
0.29977828749835755
-0.7293647946849179
0.21135788850948528
-0.060393547987699234
-0.542783745823411
0.43241798721923996