-1.1675644141324828
-0.7870808652755867
-0.03988266781087249
-0.27390830112661957
0.37833757928989453
-0.5809486007485564
-0.2440474779857589
-1.4631890091854345
1.026222377469852
-0.14103962835333672
-0.09947984062361107
1.207368080021581
-0.4292087852196911
0.5859955247715386
0.28031842813184343
-0.6879649396198037
0.10320594125506538
-0.3337515485390346
0.4387084557529124
0.538831524430722
-0.2329272462646086
0.7631166446634678
0.3613272587976383
-0.07318796630901828
-0.09293827600651114
0.1650834082222165
0.051880249184139
0.38898943886767323
0.0973377026202012
-0.2817450292382252
0.0775159596859664
-0.5707331692383608
0.16550217760758518
-0.3876582107792657
0.4973349752399514
-0.3976910250610852
-1.0511762486868872
0.6176373398329985
0.521862406859735
0.8698530387467986
-0.8155100498927355
-0.46938551552009194
-0.14880362343369535
-0.09740041027416027
0.11037291794459443
-0.7443671599512859
0.30172555935228046
0.8395573861561162
0.32078777354857885
0.5057002858262775
-0.13637064330288923
-0.6564578339325453
0.4706884918439014
-1.0452187812565459
-0.8054426250190497
-0.3126263737610458
-0.3830949814306485
-0.47273289882102976
0.5521811163076951
0.5463916894969866
-0.24203661404508245
-0.01867003598397479
-0.2331195299638457
-0.4600917747334925
0.025475961104214337
0.007419307034655542
0.24848481366232683
0.946506962128205
-0.10711198340194839
-0.19104061111936665
0.5435906020350063
-0.4291602919688917
0.020742984013548044
-0.018800400271000994
-0.0959086315251064
-0.24772184417249865
-0.3652292563944832
-0.5661164013666703
0.9024149471063633
-0.38717268948384087
-0.24173830990884476
0.4029472911507823
0.6300105371712588
0.23176902360869456
0.36002873524239787
-0.7128981510807766
0.0916379087542835
-0.033488933963607526
-0.45864929101497354
-0.060232983502255366
-0.8051166639535632
-0.21915244165174996
-0.6363140559870433
-0.32578347561220167
0.018911831428220005
-0.4800432687582582
1.9697552410493646
-0.03711644667318927
1.7035941214989987
0.23680813090249814
-0.4793998920353931
-0.4408608359099006
0.8745675806607283
0.7650958874566209
-0.021657033676401927
-0.5585736371485186
-0.21867061333403567
-0.2199948192299127
-0.20986528347217517
-0.3963408505040146
-0.5756948859825313
-0.24479510330759802
-0.1735458833001554
0.6635799773267071
0.4252757489529693
0.009622088301554053
0.6004242109368898
-0.5432817766108814
-0.6106229861746478
0.09023366217213259
0.2149305702040587
-0.13210636306506707
-0.9638508034654565
0.0035835574207015164
-0.12504652809247413
0.29769662108740114
-1.0040780341869542
0.7882924707467912
0.6860821203365961
-0.47266688058701584
0.16833398296771657
0.41516129524405
-2.17887488077308
-0.6157353121977925
-0.4014571737960586
0.3782701685083308
0.1636426386459247
-0.012347344570004415
0.19857985359602257
0.4201919783444762
-0.5892271004730075
0.03278777888279539
-0.7381424687188749
-0.73861950406676
0.08790112366355356
0.5696647913089582
0.23057290113603923
0.8152783529705689
-0.08632803970346521
0.5238281045474182
0.26238532000758
1.0117684018617872
-1.4014157344891736
-0.6471245233708749
-0.6812691826099785
0.2635793281605781
-0.6128784726650498
-0.27943806262975857
0.3867276366428968
0.6435788429810262
0.48629436995498615
-0.06123711245344883
0.31965171709543316
0.5782901964538707
-0.5897112391653294
-0.7264575406701437
-0.48033312112495224
-0.6268032457230124
0.09790860373951715
-0.2363966852268516
0.39797328560404577
0.6312243374547308
-0.5743476554633092
0.3138428679425133
-0.6496269693344596
0.9371468434203273
0.05324324884187731
0.024663484411997956
-0.048544327864243564
0.2785687314912759
0.6711878392953309
-0.1319391145258208
-0.355463039295975
0.15676052229717724
0.32922459833270334
0.23954206007585147
0.17418716343247825
0.21890421089036033
-0.1451559982157501
-1.6302680708943262
-0.48580585425976885
-0.08576041802058759
0.7039983052162118
-0.5616619218100932
-1.2747660902632447
0.2367425589485474
-0.42800436180437856
-0.08125723171653643
-0.23717516002620875
0.19276970307614388
0.0728770076762793
0.12072547075507525
0.633921288174448
0.25839814107076076
0.7568490707160596
-0.9541698654675482
0.3638472824082544
-0.03415459784614819
-0.03970605204500696
-0.10116692015538423
0.9825282285294659
-0.3500871772742294
0.849937883465344
0.41606754907864263
1.0876438093895566
-0.8301096558526646
-0.24285948250103234
0.6884803274172958
0.23326493437404106
0.9557946989603855
-0.7346877880240755
1.2099907007953499
-0.6163253759582933
0.4119155205610694
-0.04750440086632493
-0.3033166629588896
-0.059870642479782465
0.4176401838745472
0.0851278675609004
1.093477603485245
-0.09490398331060056
-0.3313703448244345
-0.5114179516666917
0.7551735466733225
0.8304792960534508
-1.3681296016010136
-0.648872676860508
-0.22088710645550025
-0.37349985197488406
-0.7141784385362117
-0.5268873507519591
-0.5261863979817106
-0.13823106263243756
0.7374946171320609
0.07786182465831544
0.5296468268312475
-0.2709623942843833
1.4730289321022632
-0.21569339715144778
0.42669736997034224
0.962474121908121
0.6639926974174284
0.5905591189291709
1.25364910083528
-0.0036113260776446388
-1.5007417680686386
0.08377375664236353
0.4670470552003776
0.23523777497338003
0.19844287280191109
0.2002484046972953
-0.18984943461845433
-0.2635315557993105
0.6051594549022482
0.19953194301733973