0.41032306496768756
-0.21772075463893267
0.5307967875899432
-0.5255928611629465
-0.052719994695167915
0.40603170097780983
-0.5232128950938608
0.3939248892116898
-0.016971288553976886
-0.12867277769131927
0.37348296743582693
1.2011983055409248
-0.40669979811134016
0.17617620972119458
-1.2700625818380764
-0.05276837557246569
-0.29268463351833984
0.2173435989968427
-0.11592356064259879
-0.04578084851060896
-0.24431454807070987
-0.16161268516212313
-0.3695590558645041
-0.11867712717794537
-0.4178311640533856
-1.1033665810230056
0.5470204189863646
-0.20870267509239893
-0.37328229742544644
-0.21616537479924422
0.5852431376288929
0.09959398686292753
-0.09703010529863187
0.07227023501244917
-0.6088587394798186
-0.7797201374809627
0.17420764180463338
0.02570116829328667
-0.0740798236252445
-1.62018370786536
-0.34157211610317617
0.13339716345101785
-0.3907498927402648
0.0007864629465601375
-0.05337604603354956
0.9831781425260366
0.34988455692931036
-0.8137220692141676
-0.5990981375412623
0.21883630475871158
-0.06303753423643646
-0.22029730785298207
-0.8733630607288485
-1.0493735795584755
1.3545497565595224
1.0612110762512124
-0.06896569501441445
0.7131117953331872
-0.763033022888179
0.08106032604332108
-0.6894917577125106
0.5485274041409558
-0.06054370610057759
-0.02527282064193978
-0.6943737884090155
-0.4091977212317602
0.053774553870084896
0.05582572925071183
0.19737067354696813
-0.06377508124244702
-0.659950642964221
0.4224904408492403
0.718264802800699
-0.28338841861308406
-0.20345299670067846
0.03835702364568774
0.8272681307132308
-0.3524515004303948
-0.28467072782024494
-0.43546549647648747
-0.3032742407545601
0.8536473752862253
0.31281128625493215
-0.33424222440054885
-0.18591473774308398
-0.785170519187246
0.6907314687524095
0.6760907461604562
0.27103065958443623
-0.27031833255566906
0.7627799498109774
-0.3822143715608545
-0.24199210975090565
0.6811300507460778
-0.22452250038638855
1.1023025549249508
-0.8048279829904513
0.29473237129487817
-0.2509129975066286
-1.0761550728953675
0.26952552721638123
-0.7794740103794424
-0.12057566531064151
0.8451407051864742
-0.48481561447908017
-0.6086903291844096
-0.2522360948851592
-1.6918544738564771
0.5006199166475391
0.6885938108775823
-1.2885804736397564
-0.007125377050489046
0.2573562841183048
-0.6807246206713157
-0.18951013284539603
0.4207907874713035
-1.3284250132446067
0.341609779793992
1.31408855850777
0.2974908489768012
0.24175440715975852
-0.6766559731808849
-0.3357378590751567
0.055950249590868376
0.5205940265174684
-0.6366229371674275
1.1719604676407371
1.0961005649712845
-0.0841971395725001
0.647773658703972
-0.629050633008874
0.3449191022224867
-0.8126728490523858
0.9161726979566904
0.07280870893897086
0.1337881778219125
-0.22359754551273475
0.2850174422902282
-0.08106823053914179
0.364518078018843
-0.2795138546985871
0.31804948785999715
-0.011981236435642056
0.3909366324534958
0.026138687762069658
-0.31512838378441044
-0.32117316208672975
0.3766269426268617
0.08134497854113094
-0.17785268150318315
-0.2509552352064146
-0.5477180207736002
0.2558210504122217
0.6014146555881885
0.09866612817567214
0.0657021253925552
-0.47951776472830276
-1.0427997111101504
0.28335424721280117
0.9614377160985914
0.732494471256248
0.3425976170382325
-0.06707112751442779
0.6355495188466691
-0.25638178734402794
-0.27831999482184583
-0.28461700588265404
0.07427928004161283
-0.38948700218625715
0.5703021468230304
1.5532413874805382
-0.22820947412501846
0.6146666966415983
-0.3809205219654109
-0.28958004201365833
0.39756428133088306
-0.7953137804751543
0.18872794803265275
-0.3773753288407199
0.18126032329725772
0.45082800308358995
0.7593644141929857
0.46692700673820364
-0.39161150389467425
-0.009097627252688105
0.3481640109273383
0.3657335460325457
-0.850060345796912
-0.4248628230094762
0.20077086822306817
-0.5976361400739387
0.2560400382453455
-1.0957083183024254
-0.34194409882837457
-0.9085857140734249
0.7131462320173539
0.580819452468518
-0.5679379735503339
-0.08072748202042077
-0.12001665211936609
-0.5412707215003498
-0.13059977257598002
-0.15753866433816133
-0.20096965241906278
-0.2172706392519104
-0.0020160573844116266
-0.3759056366780871
-0.05332444220043351
0.48489983671667475
0.016859201921771004
-0.05321369573257627
-0.39174272394656817
0.49034786461352925
1.6364751669989963
0.15321844741556465
-0.06710601826736722
-0.32008192752254533
-0.2673303771103184
0.8334400834019658
0.27335154784976634
-0.3948271128882025
0.5057890337069374
0.9383323410141313
0.3175016217644379
-0.002552314381845267
-0.6828013289887865
-0.3362659712692348
0.20391329160352623
0.2506492683987395
0.34568756649288035
0.16885224413538022
-0.22249504581051077
-0.28672779227811784
-0.020659564144536003
0.2567542335491664
0.07489540958210128
-1.060468162012508
-0.23556434613531527
0.8286860435568253
-0.11436560853342873
0.42041469752304894
-0.27440694258772774
0.49801823298176584
1.008662366914456
0.42277878389614443
0.11774278788813095
0.2877067654197424
-0.05040472678655544
0.10474945781476788
0.7886291676300011
0.43615338509015955
0.03834904846400041
-0.7779038587532066
-0.12178320310277221
0.11070016438715058
-0.7362088044525691
0.5156817568188138
0.7535494058005432
-0.17899887196780181
1.039041948994508
-0.03189507014550859
0.5510959895708789
-0.12198870668086648
0.7657883466064792
-0.5156298930372788