-0.2698301351250264
0.2583186915414187
0.7981426908857971
-1.0186107971217582
-0.8387475232196537
-0.15660902928717485
-0.5171536671445205
-0.4525450739290743
-1.5374749690718004
1.553812994724646
0.5087094859620317
0.3815535055353383
-0.08171287831937898
0.10065829310346168
-0.298482479169213
-0.506516567712834
-0.8009239573988381
0.23455022225230704
-0.09974271595630946
1.2019004171299943
-0.6261296817670463
1.3429925330754082
-0.31384828513447843
-1.5942855513797578
-0.032964839520180644
-0.02728995507372689
-0.5662482201301461
-1.7612751600003356
-0.032693966784830636
1.3813146906145999
1.6622022940466206
-0.4199180963581506
-0.17229436610977938
-0.0020952325396626503
-0.6323262062968916
-0.5808945251935579
0.6006068644458826
-0.8159877117186989
0.39164154867225687
-1.0018744404298023
0.7183770591751698
-0.5787412071332008
0.01931390428587057
-0.14328219869864917
1.6562861425347273
1.3554668068484454
-0.14703544054439982
-0.05063282151482236
0.6648893142559986
0.07059772713073902
-1.5582284765483985
0.3380923888848215
0.32790992646128614
0.04092466263252009
-0.007067105468360757
-1.565926709017454
0.770052935580942
0.7736269200680135
0.6538502803886841
0.7609008566889248
0.028331947166937863
0.9342121931616728
-0.7519390485325836
0.7899967703341477
0.18885187317523563
-0.9356944586468712
-0.5101836465082197
0.05363245616864121
0.010349262384645619
0.9834487186409586
0.5007884429705615
-1.1287409539428421
-0.2714564067061389
0.38010827770348043
-0.2793115079378926
-0.546557091006423
0.9693507113861999
0.2515774370694889
-0.14890129104530897
0.5803126916472522
-0.49963750217913205
-1.0015416984050876
-0.3465999527714725
0.5810559941148691
-0.03840882249805688
-2.3126691837460576
0.12331263201700757
1.5381301818271247
-0.6916104238699351
0.3160618155394723
-0.1156401944404453
0.05221969059044451
0.3805805746970459
0.2321781507804011
-1.3468054880913336
1.0989789310696318
0.13124921344204385
-0.2480419429406184
0.22714237824875072
-0.7509207092015717
1.2320010757621551
-0.7201395177449914
-2.1187359047611976
-0.978094520239091
-1.203360152874677
-0.16390023486276595
0.954308549772807
-1.7067645820756363
0.48104162142852114
0.11179151402935855
-0.44327214884325594
0.09455850393475285
-0.7778863920877337
-0.014035694177053384
1.7508915359421797
-0.17393006565026792
0.3484511357601817
0.12963529183231307
-0.5701818884441711
-0.43493798683596574
0.16395381848227264
1.0583131754150392
-0.5058841502671756
-1.0846647048769507
1.121800821838829
0.06378319699093113
0.815875199618203
1.4213670982793272
0.329998919752544
-1.6418114083582176
0.2714651433129912
-0.5562839280377141
1.1748746828853038
0.6429680803364417
0.8230680477491514
0.6583365387199316
-0.38729253867309343
-0.5220626906723047
0.2631496915061653
0.1359868479996102
-0.2953179755715035
-1.2992721872234763
2.116507718885068
0.06217675424875682
0.6221267909765301
-1.0325998823644964
1.048298326478389
1.4063225406985318
-1.5810878473257186
0.5243300677641844
0.9823368913757934
-0.6045761693065186
0.13474393687548403
-2.3509438470430104
-0.15663725406554863
-0.9941473107621958
1.934253258632506
0.3570822243465902
0.42145377203865086
0.1631067029749944
-0.6233782425523452
-0.478938853460514
1.0521982063270938
-0.8038888325467766
0.9842191205024364
0.49238212324321595
0.9276513330764089
-0.31047809663347803
-0.951656915679501
1.7525341671493837
0.5639996095035058
-0.11987753881177393
0.8067338638000754
0.13823553916595482
-0.2800780234812308
0.11003276336166323
0.27842108509642066
-0.3795133987845122
-0.7792953639756466
0.14994787136467047
-1.0582992088237098
0.7044433233095058
-1.0017831092337075
-1.1478213599301799
0.7692614624941267
0.3309187528718066
0.06921989552535321
-1.5515781304611371
-0.18812728897757774
0.9322018880683876
-0.589850782670244
-0.6157968102495905
-0.5410770883296586
-0.28282968973016426
-0.3356562020360416
-0.050528107465038774
0.23915413629124324
-0.5661375305205887
0.8436845483834788
-0.3583272357596261
1.0481436158030712
0.5288972548287557
-0.5034320991004387
-0.6052481930709381
-0.1698966042315145
-0.939633970055693
-1.1803457227154865
0.590890578034394
0.9907163767920895
1.3565225003931969
-0.41258921531068893
-0.931436586671466
1.759621542039659
0.6075624979842199
-0.05799478635604617
-1.024535572489699
0.6999559250345424
-0.3020585261087888
0.5232319882997446
0.1740896330064013
0.628228790128813
1.34871692431664
0.3158445114517121
-0.20103235074973722
-0.39161923926484143
-0.22952421357184538
-1.0890111117284242
0.8461066061209894
0.8244098684494318
-0.5335175202842678
-0.33717436495426073
0.4387671846080098
0.641605085872707
1.9756581046288315
0.7112532886065867
-0.3476715059075399
0.07029660890141651
-0.5232063765495729
0.8453554108449357
0.4623369751277121
0.4405597726778176
-1.7385602150993258
0.9573147348301034
-0.3810495700013239
-0.14176813183712142
-0.5474993930701182
0.9404106771153267
-0.13238731938614767
0.24967594276186056
-0.1167571109332588
-0.9950247388952675
-0.09408168558938967
0.9571769957519778
-0.3986478670396035
0.9126208454800729
-0.26060659182490004
1.0068909606074221
-0.3928304733086951
0.20644194628903906
0.7568873325321069
0.06015746158117707
-0.5271458125842422
-0.025562279939036703
-1.5078706647281261
1.8451192418482778