-1.081387752570942
-1.3740334218137131
1.1176870193131658
-0.012459807384732055
-0.01866825774585279
0.11641921047203858
0.7772252262393388
-1.0699438074885175
-0.42718628461867086
0.6563804832632274
0.4898030803759364
0.3738937213054233
-0.2660111221908296
1.1496178427820225
0.31017323742775105
0.7686438121091236
1.5922871840391952
0.39164142564257165
0.21794531250368898
-0.4640472094103325
0.47959219500299766
0.47081721206555255
-0.49295101812297515
0.1477315593651874
-1.266919119633977
0.670917657843103
0.12831390616509286
-0.10267973160454949
0.012401056080593637
-0.7787122050846128
0.1385858875731854
-1.2344172995760785
-1.1630590031922303
-0.2946756690719489
-0.43751858561246704
-3.3828180791858165
0.03332658006657263
-0.5848497180713655
0.35708879144176764
-0.21686429019643544
0.6211041061378095
-1.3025226605257871
0.4469047092807227
0.17854630928750415
0.6796535829565971
0.16939627792882292
0.4946158275091392
1.6745143824523119
0.038529152074247605
-0.8073449904484311
0.9501738000247111
0.09536286918726833
-0.4543068217917079
-0.18920490874837664
0.8323399068385395
-0.5968888095514349
-0.05817049845930547
0.544984380336487
-0.6811039947654439
0.605377542285467
0.07644405287402871
0.23621816892275463
-1.0935566395326453
-1.0750400760972163
0.304570465773816
-0.3485259622855372
0.6710850860524425
-0.36155699736620994
0.4289234466096882
-0.22943756113488945
-0.8456816056520795
0.8754784385529528
-0.9110398488186578
0.6573071062958207
-0.7888813127436888
-0.9959935870997367
0.40643201488344854
-1.0625191615613854
0.2721467585938527
0.42701936902787485
-0.274199801095824
-0.03193147175746527
-0.9765057131858996
0.6571826828398705
0.17143441465298054
-0.3727550765641856
0.09924491699583146
-0.12566730836630108
0.2413777978364518
0.024574529435262074
0.2441842067874172
1.035319563204076
0.027348415635081055
0.675629092448874
0.8691906931573445
-0.9563788073492305
1.531404677213695
-0.08562252721199622
0.5658374618968867
-0.39587476259475723
0.7606409836438234
-0.36007789300863025
-0.1855102846245105
0.6921730937454061
-0.9186893839709036
0.1298058185699784
0.8210069447893897
-0.6029702742049966
-0.41643024212133917
0.4309822314289845
-0.026068627943722587
-0.4127023716279366
-0.424653736794642
0.13591231723891262
-0.652901497552151
-0.4821957218232974
-0.03570268872823226
0.06340530656283899
-0.8088740580774897
-0.6076860030536038
0.10657605984255611
0.2552702959426542
-0.08252490865759292
-0.42568633322163457
-0.8418245660074556
0.5671447732285284
0.10964877674201351
0.9063676949607664
0.4770789584191016
-0.5609923027878209
0.3449667316518648
-0.5560490635949085
0.9552688624014961
-1.0537807927658591
-0.25761217731710706
-0.7566306804768599
0.02324887028250775
0.3582861536390163
-0.12894744634865046
-0.09650820544888972
1.0473660357324417
0.6255894361908099
0.19981743877050856
0.21958763332244247
-0.38377585912875906
-0.9456280879026344
-0.6415184454311061
0.37394644241058467
0.4556274406430365
-0.6998327932893572
0.472700310270912
-0.12861332948268397
-1.161947880442206
1.5634930672351928
0.02118499301179294
0.7259310851633536
0.17907963615630063
-0.23995382309612462
-0.15786432605027323
0.7907679380956079
-1.0027633336194173
-0.32020865467705606
-0.827764468144699
0.6571895911818172
1.0583958350931728
-0.9409211611259852
-0.994097346209345
-0.43188880856866635
0.48886619786889235
-0.8843355934227466
1.3304763062411253
0.4240376774979593
0.16022098130193252
0.1781397910507735
0.540824508069529
0.34386853328585754
0.593677267035539
0.19536549276315346
0.760310103329955
-0.43488000883722927
0.35883933534417567
-0.6110270120881501
-0.8239951101399661
-0.03967695774478633
-0.527845789675774
0.9053499253144464
-0.198722179811338
0.6839850957349822
1.1781060700689536
0.8833569180394489
0.2864270608427224
-0.2796040006079224
0.3130339400399261
0.2729112040561105
-0.6106899010137479
0.06414254899268607
0.9188042258916252
-0.5036968771634356
-0.08036614864365575
-0.10477316779549722
-0.847479045541718
1.013365734083612
-0.6751606858710542
-2.502823904363371
0.650031991535206
-0.4138295381367527
-0.01040257356948307
0.43023232297522307
-0.15402030290217902
0.039324330415009004
-0.42014962692854996
0.06722094451066256
0.5883281201975777
1.3627448021820112
0.3432906394758944
-0.57219554184233
-0.7050351794697007
0.8594690385842652
-1.1866358194187845
0.363322790582593
-0.8094887394391369
-0.6777364151557509
-0.7182442879752199
0.7195692040845288
0.30396998453159096
-0.39646855603223274
-0.7979645365399278
-0.024701811059682638
0.5634175795112853
-0.34964583821126693
-0.6542721946148731
0.2759905613275623
-1.0381606214979038
-0.344117303319077
-1.2404984575015159
0.16778468451270537
-0.152231970243767
0.2525054093710256
-0.44743674851851994
0.550866682828983
0.02132089450603892
-0.2992772490215993
-0.1323761168394281
0.5038744921372345
-0.01020475955113986
-0.4026727110060521
0.01791795584219937
0.16781375642523527
0.9968636340513684
1.2146540409705489
-0.09125519560580637
1.512291642260922
-0.16151478650726642
0.38050095186806077
1.7678864294678072
-1.2019923087368496
-0.05314865158765873
-0.23218204215408927
0.13485823202838498
0.6371608812812979
0.13065795627128535
-1.1410308267582208
-1.0159091766173078
0.8989403730655643
-0.9346486770982172