0.22539124832954777
-0.03632809580354536
0.36298464205177816
0.288588478159347
0.30421837577466193
-0.6978363307620559
-0.12943838673874208
-0.9074508691544922
0.14754842993734843
-0.174607105307111
-0.9144349253422795
-0.28346027423811393
-0.5755710485828045
-0.13316373204232118
0.34987722774920943
-0.7008782447920329
-0.4494170630731693
0.13165572434793726
-0.0023476477566710813
0.33097025972332056
0.3014858506135963
-0.39708813047577085
1.10105565530029
0.36183137356565886
-0.555236964043265
-0.18180442685524778
0.1080251068328563
-0.17289341096925057
0.4046895627991435
0.003382432396038443
0.39358617294448817
-0.5048339022457383
-0.19560457380778876
0.11705592521313915
0.7770094456182173
-0.5635153389474673
-0.7026690246915293
0.2991967730281328
0.1802094708429119
0.2535762883090002
-0.28203498774389996
0.1981893166122179
1.0902887814982705
-0.7913925585276536
-0.8722908964896456
-0.10032870202371255
-0.24753401223618662
0.006469920291270609
0.3994782945998975
-0.625701658052518
1.4352317371549703
-0.4016363122667731
0.4100490924562113
-1.1215154565429486
0.662540133648057
0.769097709335447
0.7302520914867703
-0.35035298618145566
-0.4077988083796594
0.8821665682254392
-0.9381406214500813
0.28488822181709383
-0.3808137182667059
-0.319391265682871
-0.17719212709316257
0.13268296213276626
-0.9455377392332025
0.7144736827186124
-1.218099666176878
0.24647009799548011
-0.4537932299189374
-0.17677021477079918
0.04713790330042776
0.22229453932809937
0.5030155394374021
0.5950086316841554
0.5856605649833633
-0.4181666507799131
-0.14937525750357827
0.5114358440795926
-1.3507430466318622
-0.6641542630385632
-0.6468327903870243
0.4675454254354372
-0.26593552412951726
-0.07971540062274739
0.5205707087848132
-0.2589739479998311
-0.8147773099000695
0.3308569754393814
-0.9786323790218209
0.04594172070626516
-0.571058858439517
-0.7662953717868259
-0.24598060907216446
-0.05379009970579089
0.45921129961457796
0.32529996316910237
0.14301891319265841
1.529291729108978
0.09375892363761015
0.22349874689716104
-0.7341054389220719
0.6530202447346934
-0.5689973406318299
-1.3518965151879956
0.16423295354259634
0.6432255167243665
0.17321152348837973
-0.5706443421365996
-0.48020108700258396
-0.049095458168155755
-0.1455258842039112
-0.5546437638997895
-0.41609767625674104
0.44090168100518706
1.5519124543266047
0.005484062951321536
-0.7202132050513033
-0.028727705050248714
0.29880195918415225
1.3321076904454976
-0.013552783164392554
-0.6615826352448774
0.5240600206247313
-0.886728181856091
-0.4615197965189481
-0.3812699437043007
0.528320637500227
0.551661165020658
-0.290699918332575
-0.47396432004206235
-0.15223003878842467
0.7872680925608418
0.7794707186287548
1.8292063337397475
0.019350889150452993
-0.6036876556462425
0.2326640263892745
-0.3652178934184974
0.06706727435193176
0.3590806817632919
-0.9657694599416998
-0.1592168268964904
-0.82779965336286
-0.0977091361132432
-0.7033993276173387
-0.861144744339291
-0.8691857623131658
-0.20278296610739638
0.6216384100396479
0.32946721922080213
-0.1278853930077463
0.50123249815092
-0.7157794538710245
0.22593100344736244
-0.4943280409368279
0.7573130656858031
-0.3297424882822108
-0.030535207092842326
-0.06319268816856
-0.5477210550007625
0.10762264922707881
0.19463177124629524
-0.5245465497811296
-0.511242057792937
-0.7430302113686394
-0.3042936169438646
0.8603792028233799
-0.18594738512843412
0.5050224448547214
-0.957725127120953
-0.9766869280971207
0.09701015797906107
0.6333077964394375
0.8734223070166701
0.23554096824319629
1.7424475049320378
0.5041897821258853
0.14811939665356388
0.056238842665049804
-0.1262981081271965
0.378538909338666
-0.5621457074440761
-0.4950206022888367
0.017163473258665823
0.26375388960665286
0.19508777282817696
0.37684209590563267
0.8539237824006012
0.03926008444905593
0.1435016511469133
0.7866977322612161
0.6898219188211122
-1.0956357845155305
1.1612591432544785
-0.7655006102972363
0.11393684693084503
-0.8720694566808606
-0.3421262810770492
0.7021658364449463
-0.05556735302192144
1.0830787524241623
-0.6977828010390638
-0.8099759468004571
0.4906365837395134
0.1957258619840887
-0.3011068693676252
-0.6966662754143775
-0.20958854214096936
-1.4465348650807908
-0.09749816746959938
1.2383412265303853
1.3158957410707874
-0.5382251574933359
-0.17539148392984608
-0.10187640269570454
-0.4942272108936345
-0.08321258298576723
0.08314914892688254
0.1708832030118845
-0.45631342745459513
-0.3045014650487271
0.1691411854357106
0.2484544018880801
0.06573311753852709
0.11615450863522195
1.1674524318542217
0.5700167143107506
-0.11855854786271108
-0.8990320502945722
0.5721843629142216
0.20127889242314012
0.34755537398642694
-0.32323669366637
-0.04199766195541882
-1.7142878370335104
0.5619895780639961
1.3756393786770476
0.5667764512502002
0.08035230786785097
-0.29730550600559247
-0.723805316541801
0.25023333435600187
0.3719225381602007
0.2081832071566757
0.38299837210723153
0.16805248528644356
-0.5688302126154022
-0.7201039681799574
-0.7016040930497526
0.32692634293042133
-0.0695021384180906
0.740279790314942
0.1418960504752643
0.44716512045463397
0.31965556845988274
0.6213102218927997
-0.007144132717984493
0.17027831272974897
0.14190981075042813
-0.1353083593348719
-0.15301407049587457
0.4760685814138811
0.7566621173875374