0.14086846021991897
-0.5020990156881167
-0.1670981961933514
-0.2705535017605125
0.044214853144500965
-0.5144632756141494
-0.5310737125457011
-0.5687889958782919
0.3526309237317611
-0.6581370549497606
0.35213068389702706
0.5530127105878693
-0.2921525332365417
-0.1535048215055841
0.502371160129775
0.4633192983433758
0.7255546252380013
1.4430678109854223
-0.32197575441497167
-0.3138897006645136
1.608126193916538
0.8373535513704885
-0.3289478659019276
0.2888167396125997
-0.6944822479684449
0.05989373245768691
0.20212614348805646
0.0841500433655439
1.3920897553095382
0.29781005739739097
-0.06703658733993938
-0.31384530427384805
-0.4089842824822742
0.4036455550657117
0.08672327206911984
0.8761875254966216
0.18301493043192998
0.7008467615377924
-0.2792164607862435
-0.8397979980158397
-1.012011082532154
-1.7993411065712974
-0.05757971541887741
-0.4373979964425986
0.22864900194343665
-0.1982603613389313
-0.11456723593709278
-0.03353399382609866
-0.059863837793499214
-0.12125479877361711
-0.288602256499111
0.7619311788286556
-0.5513206170909776
0.1105433735397125
-0.5926195642743856
-0.8220582206967193
-0.06097614414150295
-0.21258924556378245
0.026762371550970596
0.7000276430234605
1.0593962752424901
0.08198338056643736
-1.1826070700222142
-1.8943233534528614
-0.013094649789434067
-0.044006732214712574
-0.9110932385572312
-0.3348310909458765
0.4095228788217144
-0.5642598959418791
-1.4383628987273571
-0.3067965199620796
0.7111819692715472
-1.30964150971563
-0.7457459608634498
-0.7437379093541086
-0.5429996169509022
0.5755984797307142
-1.597830985860815
0.45667049576653085
-1.3741531503820519
0.24427684891041507
-0.7836030098659151
0.519095223963627
1.0167466251333743
0.8476898025924742
0.8254750597360623
0.06781544851749036
0.09551452976102168
0.45030563517944777
-0.586788891773352
0.5202034618632103
-0.3214117321042051
0.43288341014549214
-0.5333254769091271
-0.3156100705397803
-0.46303714331625634
0.18130662384418506
-1.0359679975484073
-0.4114043682765034
-0.9186236056518027
-0.11171578975422952
1.41344769936071
0.24893083236281438
-0.0795770405893817
-0.4090281818265565
-0.24237677094192978
-0.3874190900718946
1.1483274446577967
0.2101797894196369
-1.1074848928888446
0.5649700737965161
-0.34783121734370404
-0.6648769420779412
1.3613115473219506
1.4856218943339494
1.2007250085493606
0.769104881958795
-0.22284715935739477
1.231117749793086
0.7516143803997678
-0.5356608033692399
-0.07911235266073932
0.8409716621370165
0.00708916905326451
-0.21253288935198392
1.4694628449883052
0.3675993218025235
-0.9176318484386342
0.16282563817227064
0.5413383341703526
1.3397500664290267
0.07315969262965227
-1.8874244388755932
-0.0736040976058907
0.2352230109909366
-0.10409907216300432
-1.122977012831569
-0.6549090989951001
-0.9643761470995127
-0.27564493269482976
-0.13148802781962166
0.47167344148720985
-0.5890069577228845
1.3518675497019148
1.2330751848351549
1.3806897075715743
-0.20347368851712805
0.3406387426383965
-0.07665691061605145
0.5841565509684348
0.6192836594322148
0.06694379474674939
1.7697531351174856
0.5854581494421336
0.1787013597540124
0.6476277576646879
0.049018742837499366
-0.3640519068628449
-0.24715695677179939
-0.22496599859430783
-0.16706446323566743
1.367880496338891
-0.9602753853453614
1.889309111866825
0.2535910255160429
-0.9261948390370698
-0.3078486262225292
0.014659073433605924
0.5808382690940953
-0.27674315385062953
1.0416958703531762
0.43315291426438085
-0.9487712742664186
-0.3666977807854912
-0.667566589059386
-0.9443781821202086
-1.595164864322867
0.14029841353445072
0.5020314724751233
-0.8402722874073477
-1.0321890116724939
1.0454411942000033
0.8911414667047227
-0.5534233467509793
-0.011639597035081592
-0.30225002763397385
0.8030299376145685
-0.3868702528764355
-0.7587527332996205
0.39042342513366035
0.12669934394537052
-0.2676164632215553
-0.8325656759435043
0.37738447295261013
-0.10417447089450499
1.9814864171919422
0.36085211351324353
-0.42762269457044355
-0.6374251556342563
1.2401299525585174
0.7702390020721571
-0.07191576167991898
1.0911266787985543
0.27809447308573687
1.2924937097108018
0.5144954445212427
0.010663162432218275
1.6937043664854117
0.9004454204711287
-0.44980081375797804
-0.6900942914340333
1.1502503154381862
0.7045362774002215
0.4334434875923486
0.6539097947153192
-0.6598939225726441
-0.5505022373326852
0.8391879853832742
0.5699888291256118
-0.12009227417922495
1.156256811954663
0.8297008225139125
1.3745084904339777
-0.44979126625122234
-0.5170991010800514
0.10231207785539098
-0.025436073506580836
1.7698100859588526
0.7328827655397434
-0.0575186769895744
-1.9242395874092337
-1.4025254155924736
0.11468521602633003
0.023673134212307403
0.008984409924693404
-0.4845768922108694
-0.17234362819473045
-0.430281203475107
0.3789692403107187
0.7261905901960279
0.8418925605099057
-1.8338230053707345
-0.04390827351734328
-0.06262512356363283
-0.5175263313750451
-0.1625155149409897
0.9668133022637113
-0.35338253705786105
-0.06597269059526581
-1.2107308783750177
0.9385779827223087
0.7135501802506027
0.02872660734038862
0.45652104042737757
-1.311315834866343
0.2173718725069646
-0.06654610203989327
-0.6142834718233982
-1.8011225544084166
0.9116918913665286
-1.2383626388109477
0.2871132654472279
-0.3213826080661259
0.21969737768291797