-0.4350674475678209
1.2604174269902593
-0.11937442356138919
0.47564860134473524
-0.35364256638625036
-1.4171102601188266
0.0010533159530262542
-0.8437581569564907
-1.0066544395760304
0.0072391303390288465
0.16865715230801806
-0.8631810600182532
-0.3531916999716213
-0.7321753498947301
0.05455463232706115
-0.2268871769776148
0.14894551718508794
-1.1967662873005207
0.5103082263744924
0.5226458673356555
0.31979135604303166
-0.01276066733242065
-0.32515530442236074
0.3510417021919085
-0.03591269041176759
-0.6486546728391389
0.2179732838016708
-0.32690930852817635
-0.024352969060148957
-0.418375873820125
-0.2851641425908745
-0.4845020925937386
-0.7831133482723935
0.4815940912825289
-0.8019333588353219
0.28038507265997914
-0.5696600979784519
0.18610282361117259
-0.11256027147115928
-0.8946881979974495
-0.25120321160995235
0.5455146464153179
-0.10051231549850562
0.09849519634093068
-0.5426321468941884
-0.5295051831980799
-1.2770651018390955
-0.7148282599873044
0.04268907881916578
-0.23617381211570895
0.11907925346942466
-0.14134387327874257
-0.5018284655678817
-0.4625821577648157
-0.6433869919408385
0.4440274747630164
-0.8635993039838242
-0.9889309607189759
-0.028723803036308237
-0.6127344600679314
0.15953985965705528
0.31502439415377503
0.4994977724010876
-0.13572144923418925
-0.15612676775750559
-0.7391023629617329
-0.9335189267924259
0.09028146527154829
0.3372260930448451
0.2689552422406511
0.154245757559909
-0.48088141110141813
-0.44477392119042025
-1.137016976449428
0.04332588283555515
-0.8181531124351596
-0.14024499809135088
-1.0972357392306875
-0.5637658131066098
0.9823838351970813
0.7660572137509307
-0.8742250484316876
0.054253480377363224
0.7532348049555289
0.2539256104843483
0.10632730035018657
-1.2206518342326116
-0.3854500704822617
-0.593612393456538
-0.9093501406004936
-0.04893007309793881
-0.14354187285302236
0.4498598103201301
-0.34521932088025487
-0.02760724892303172
-0.5133763269042592
-0.35577751957846004
-0.42612317696568186
-0.15814412114854082
-0.0743383639970899
0.71871391356305
0.29996608284643633
0.02845610188901783
0.5108367679573955
0.18341855880117522
-0.10937178729011839
-0.17142143628913797
0.24558840466549597
0.2926327873356589
-0.019344855055341892
-0.31971671315618966
-0.21622191729644683
-0.438827315011304
-0.43782195853210304
0.08419833737425932
0.08908397001196312
0.0005201729841426452
-1.0502779876105406
-0.3871483192235487
0.0263313418554919
0.12459123704856394
-0.13303223598568936
-0.34915432245651173
0.030170363385219903
0.1538254092980466
-0.03015494603277335
1.019587545664942
-0.12688401819527384
1.4053400306049548
-0.6532117173342383
0.058081810900241226
-0.017775171053138493
-0.8464580091787524
0.913058906910329
-0.4095286019451555
-0.5031242692550013
0.015120638907196393
0.343864596924575
-0.12981392761412952
-0.11019473986327119
-0.008332136027075861
0.21243846219221385
0.3372308307279414
0.4444249475126947
0.16099005409406233
-0.0946680563699098
0.4417505167196957
-0.4822292344864854
0.6453779499966981
-0.6894978883552759
-0.18235221575834734
-0.7673855819441124
-0.7073609240530431
-1.0140027682331865
0.4337976301137171
1.0084191186028075
0.7590749794579856
-0.2364041557878371
-1.0320186831598586
-1.1552095700387055
0.5507804853837285
1.4336259705551015
0.24557047334814464
-0.10003165616969789
0.9485168157342523
0.09648704389228374
-0.5488298311323654
0.6993094458829718
-0.2604858901557979
0.6063385807210814
-0.6156074568078092
-0.8729770914411794
-0.7956381725035074
-0.18266627445562617
0.18107962136788358
0.6848778922019854
-0.3228325729990202
1.4091107698868335
-0.48928575407565067
1.1305535347791407
-0.9658042306310012
0.1270099055938444
-0.3811232527943995
-0.5273986831566003
0.12481901535562662
1.1788043246395585
0.08497117334300369
0.258108463721475
-0.44327611258247085
0.5272554825349881
0.32773981733923974
-0.8028820054147353
-0.4704115962118883
-0.14874467347363776
-0.680365273224502
-0.9104465855607164
-0.024388523256691885
0.24036575734125162
-0.5395166870246761
-0.372056362278753
-0.2576825517275182
-0.1715146465849079
-0.2175825740378473
-0.6976514105296712
-0.1285445418742835
-0.44445619994864854
-0.6873440893442986
0.4754857855950075
0.46975584852352503
-0.7340073406677404
-0.17582300690571817
0.2645597550091943
0.5363196557643529
-0.07418768664292727
0.2389764045702102
-0.11293465341804687
-0.33065793500433566
-0.1459013914349362
0.6176974930704463
0.2982942411692895
-0.30947401599013913
-1.1567647686484706
1.1258870126765308
-0.05516423999389236
0.8069019679892128
-0.4557479923104282
0.06648322458888356
0.5234375795084515
0.926137310460857
-0.5196439969230607
-0.13461379337814997
0.21438305949586217
-0.32097493471862326
0.2848946539749183
0.6776364597511301
0.20550970611045472
1.4180456764713822
0.3957693447547427
0.14450245104988083
-0.3168476699125407
-1.3492771260004555
0.10777147627398351
0.4696091949427114
-0.008893779221113986
0.03765411680315876
1.5204564163818375
0.12975515858400716
0.18147473107880285
-0.23320008505197326
-0.7406416450647485
-0.10273980687768786
-0.40275632498801717
0.003676230508904331
0.45397399774576436
0.3096581828056513
-0.5968766217837091
-0.25786420622670697
0.7724937329865209
0.6542561808738698
0.10331122537307862
0.12655503568130028
-1.3990706656558245
0.5659474970723066
0.237797648146503
-0.022561975096684617