0.6842557485249414
0.3109438460106638
-0.441370167935239
0.21260648672842464
-0.1836530295852607
-0.03359173797365611
1.3350377035933871
0.048793779135200666
0.3377196152807499
0.2601465756472781
0.48373109215243953
0.20380528966618588
-0.5270321345465878
0.2314634992335106
1.042561880865081
0.2914832730819346
-0.20238901711630067
-0.4351149693806553
1.031871952844086
-0.1051317521982436
-0.6749571683645
-0.7111579792938476
0.28161840614139744
-0.2827936441824948
0.005422341030354383
-1.0213773256163137
-0.5685183730518342
0.5963125597313681
-0.4112210233573645
-1.2549648265601006
0.4819335708308271
-0.12801442377863398
0.7744046325829842
-0.06852234532571824
0.3641227001007471
0.8095053709654061
-0.5481734467596332
1.0119491541840193
0.18306291885262055
-0.7952581407654183
-0.035210638120169724
0.37936623340869463
-0.49428412530905386
-0.17164594616758633
1.16816799803774
0.13884295414337064
0.8042291738685108
-1.0872489305377855
0.9429725200588155
-0.693099131686341
-0.1134440849987045
0.3195028140902503
1.3268686491085697
-0.46875671401418295
-0.8465106205556954
0.04788047526482321
-0.43168337777463894
0.3448338934952658
0.9335748312062997
-0.28955831670496285
-0.9410888148507821
-0.502963469027094
0.11854367894737203
0.6607763177018133
-0.20100358112322148
0.39367929802337237
-0.05815353347582275
0.24984070372645953
0.46414753162970723
-0.4538874994057206
0.27006869695763325
0.7824753240556337
0.5571532516317781
-1.0428187919788807
-1.341318773718603
1.1530014527511083
0.3929646855420736
0.5309074062068606
0.1582683184616872
-0.5835621220419615
-0.1997992893104894
-0.10476275944759234
0.7366040217984849
-0.7411602319365777
0.04097638909846148
0.13722443484166008
0.3980119712206398
-1.0628018327025122
0.49685612876143465
0.1278376561646594
0.20704147216362656
-0.59109276786873
0.19215038082608346
0.06377993753237324
-0.6544483265072011
0.087175589752151
-0.36362383261743386
0.7606595923511232
0.8332998495858767
0.21043925346780365
-0.041225531929658166
0.41467547588639303
-1.561865021938932
-0.252842832551471
-0.7610924168349977
0.032440478983223414
0.3370264372399697
0.4673874339917394
0.02919417510272917
0.863065560354566
0.9316275778866545
0.5434145692007182
1.4060753235986319
-0.32797821121347903
0.032727904713893266
-0.40052971189076914
0.08353711491393762
1.2292609707472038
-0.17630080495992656
-0.637118441319627
-0.7037039209279934
0.3066027552808598
0.13875799024629418
-0.20960685116438033
-0.4162231618177928
0.0034161400611645437
-0.5738486779115679
-0.8453021949063562
-0.028973281404334403
0.05829545481454307
1.0028868015804755
-0.2845895027753902
0.46617034201662116
-0.19198066629500532
-0.17112700509601797
-0.19816170675364475
-0.11126827820916976
-0.13957535967763976
0.501821494625081
-0.12569876180160797
0.5657038068475488
-0.5840676008256983
0.9420939010327928
0.6165758710729181
-0.876850993138897
0.8146743237522466
-0.19549547320534802
0.5794554352235728
0.41911756174138387
-0.9745430375682211
-0.37802815197859213
-0.018768974176762918
1.5055988904991504
1.4415298750854029
0.625852907123489
-0.410724048955618
1.3662345304275478
-0.06784742849040018
-0.4378144163739933
-0.6676385644625037
-0.990174439218553
0.307361277214315
-1.0266816242634518
0.11109473417205523
-0.303398144916539
-0.6088123038414354
-1.1345754241187975
0.4566180858337031
-0.23913557042559747
0.29424862915750244
-0.790290333666718
-0.5274924441436408
-0.5150068297319086
-0.7488780565743723
-0.3715299623654639
-0.4581837930533799
-0.8964547031546208
0.5229243808393909
-0.007617330835372971
0.18854012991839858
0.5313975020432142
0.8656025911280656
-0.4717044378655763
-0.3551259207397074
-0.09080816265599416
0.9183132656231581
1.1470890110694625
0.45613965558289327
-0.39150992409983776
0.062040943789082426
-0.5193708393138179
0.822586331229122
-0.5536843985945977
-0.23769052759859433
0.27952987610983865
-0.09286106475760222
-0.29028281993502825
-0.19780173751179264
1.1484525385936744
-0.09009990563223824
0.941059235730306
-0.45901474752775606
0.7350838120779131
-0.23381740607468382
1.017805176034878
0.03993598822660849
-0.0158401563890459
0.4186113213352889
0.39205924260514036
0.4836584537411116
-0.4015544074646877
0.12240507014946825
0.6563388096497531
0.2575786333408555
0.5983247191362628
-0.7842241291108655
-0.12517892356577545
0.9854516504426302
-0.9295445069083226
-1.2267729380376524
0.2962309388314837
-0.10617255939299453
-0.10038145340287417
-0.013523568684703585
0.2051460473254605
-0.09892110549379363
-0.8424415279460102
-0.21687781056744554
-0.21349962677663686
-0.061514520138235565
-0.1342287843740056
-0.23762097448483907
-0.13718174061715346
0.29145078063234037
0.5936893241779306
0.46069403538109444
1.4907961382681343
-0.08025219042278586
0.15918907452139403
-0.16070150644961612
-0.18431416254729696
-0.13248560192587094
0.18546060442681436
0.8344326104307094
-0.2444444390179007
-0.714759863619497
-0.07709899153979329
-0.16802944358917515
-0.32023784510836156
-0.5005606951474207
-0.8045068451253039
-0.12290447020343206
0.6461084645947253
1.3396437084819595
0.7562769527936627
-0.19442849069422566
0.13595893870110876
0.16063225874602996
0.994470056922302
0.8985817646806504
0.5630519895547578
0.046057452470608856
0.20066582377771747
-0.39446451373901775
-0.09611154473587799