-0.36793487043701967
0.45836521141087905
-1.6101593680262245
0.9553967510639253
0.6838421349470353
0.18253156018951375
0.3036726766972262
0.1612438847191453
-0.04602059269001331
0.6446194134959798
0.6607758344307992
-0.04475004218223411
0.32334561216689256
0.28852034742374627
0.5126953843541615
0.1883073409664606
-0.3854179803347573
-0.7677366238238079
0.560770516232993
-0.13861321992646275
0.6121928370129378
-0.6427302668176292
-0.7974727091654814
-0.0789428037473989
-0.11559904804154064
-0.3861134608471407
0.015812709356430782
-0.494746356446237
0.036609042152684644
0.577437146570815
0.38169191724204066
0.11077933228304535
-0.6726220808913634
0.14459549023429896
-0.22349149219246742
-0.5664443033244173
1.124907752507345
-0.22683531533097678
0.4200578600865771
-0.7870154378336136
0.08627872176131746
0.2650159169329247
-0.072673430960891
0.01622790439424568
-0.6771139930841421
-0.2747292158340274
-0.9708493644486751
-1.0755138993943656
0.37834770439597354
0.3306017829310928
-0.780348268024138
0.3336267270966618
-0.026397049788189686
-0.7312637915677263
1.0048150868490948
0.2034437701759908
0.1790137384210731
0.2631418677221377
-0.7888279004228993
-0.40067343556769264
0.26287828083707643
0.3440770445706929
-0.5099509807746554
-1.0556138777602129
-0.36823488200298343
0.11643081028249663
0.230616698935032
0.5902135321522533
-0.04742845767066553
-0.5328291540116998
0.2500374524982605
-0.9355909634633262
0.7832688271041754
-0.18370040160257564
0.3184000710986269
-0.7152248894100746
-0.19148221243291602
-0.660170963510273
-0.4808759130804161
0.4257343776389073
0.47744234849205547
0.25569872007618605
-0.3504981461568008
0.21242098268361442
0.014219791854395675
-0.22410825361697745
0.31528138037282716
0.06470686962551433
-0.5260202186131807
0.5437372997608662
-0.6160138174871546
0.026151102349167087
0.03882900469939189
0.33470648584300644
-0.7392322666084116
0.36162264733353955
-0.0265649198645814
0.1273629453000886
-0.5914175793636003
-0.029606069346402926
-0.41046048079601916
-0.5353960890533673
0.01465435495521844
0.1394184275672922
-0.6001068972249579
0.16659382986723278
-0.08393559299338424
0.4059775815694893
0.5553807695672651
0.5313890004106423
-0.6319785861077314
-0.6824435591680877
-0.06807317939627344
-0.5082793306885298
-0.14112345714596383
0.01295720923073998
-0.628745659027139
0.33388525661338136
0.20569513352833255
-0.1935482733131632
0.6832015936195242
-0.5966050275747636
0.9762549217837205
-0.8349892199444205
-0.12985059628806364
0.748666459396976
-0.5730585930220835
0.8991631362791636
0.5446282921832798
0.05330839804570412
-0.5371856863233931
-0.22753004898457163
0.22786313788867923
-0.62856501903218
0.04695520391070827
0.20441905376020927
-0.05433207291603509
0.6057687003585275
-0.45490526754506655
0.1767690624902568
0.1104260216864758
0.6142496880978571
1.2238096799440967
-0.8427711698639386
-0.44422489133521864
-0.47096213241241214
0.40803160587338616
0.16655977923880005
0.3287036551651529
-0.7086350185291527
-0.7332050715054905
-0.015810682013775675
0.5053504501612021
1.1683544297387645
-0.38238920013958666
-0.3531949892385391
-1.332775545483261
-0.8860923812042013
0.40518754143498614
-0.14977741852434245
-0.1524982769716215
-0.44245839969072703
-0.3454405613545627
1.0940546366562958
-0.044364612638791656
0.663214820884984
0.06756523047390789
-0.39976956892462745
0.07339104914737152
-0.10108433600746665
-0.346421364685055
-0.08154776884115389
-0.33619657627698285
0.6733886961475144
-0.2448487719653423
0.692069038364966
-0.5407049215570642
-0.006019931433448089
0.21747397837612267
-0.09821247033743727
0.6622430856239895
-0.033620578747836305
0.068559143731628
-0.44426172700632044
0.7475934172767842
-0.794522348100831
-0.24845177765943552
-0.9445250136684398
0.39898656395950416
0.061000938669069915
0.7342881422189103
0.8724475666516684
0.6560334703566045
-0.25771092625879743
-0.39398180475770084
0.35424096122852144
0.5565160073429167
1.499241411240376
0.29358752956273904
0.8068620919955672
-0.6224364265562101
0.874463010782836
0.09778133389972299
0.48553931601189754
-0.5302909943915802
-0.11238372703539765
0.22955953529482193
-0.22747218174769435
0.6120640594175613
0.11393952050182203
-0.3951102878891621
-0.4022114126883668
1.0267261374462349
-0.5576991787000989
0.23825771513062582
1.1946734523688856
-0.08572091020431169
-0.25426368672890526
-0.03588053574025704
0.3953078844772837
-0.4555812818597322
0.30143204043013067
-0.27975458527271824
0.33836922046581097
0.6096820885008524
-0.28519851450834416
0.011385110645039748
0.45076722460810964
0.6956715727925921
0.776115362701099
0.15712406732334247
-0.04118179942374901
1.0144129281297263
0.25308211935539704
-0.38554393611113336
-0.1390474247847172
-0.1765350523078792
-0.5934798550859809
0.3671871004179821
0.9688170549731501
-0.03609313445387144
-0.17019142273815083
-0.27719899263922265
0.09584124172640457
-0.45724980578417823
0.039448946801904215
-0.22301133400261702
0.2761055071939875
0.26810689607429156
-0.3123807420809843
-0.8585773699627731
-0.4808863832971957
0.05728891146174195
0.433031843326979
0.5039827346691028
-0.8928510503243484
0.6583214312098876
0.33837529681132616
0.24378499987228114
-0.052570800550204966
-0.33137853018590774
0.23714909139940044
0.46956223743558645
-0.09654136801830876
0.7590070278548385