-0.24259194063780742
-0.33167328665100554
-0.12359769107738353
-0.5338964489816417
0.5156439374776933
-0.8969135984165553
-0.5501779785310138
-0.729000546626916
-0.6634489579071136
0.013648232646800179
-0.5055849697546448
-0.28053176434478955
-1.0594075004167016
-0.17453655477683114
0.11817255737660627
0.6524148194060655
0.7899063726020343
-0.731985238757675
0.06559109970389831
0.32424876520498297
0.004565573540805515
0.6991349369656222
0.7797818441501339
-0.1315015054725034
0.3310721553996121
-0.15413610232275027
0.16488983578484884
-0.3621628133791889
-0.7744254728492106
0.5934468170205996
-0.10389575856897126
-0.22488561196191748
-0.37593690682701997
-0.5886765732698802
0.24250300670634461
0.1918652519719949
-0.26926579284738655
0.1220327144090163
0.9198276169134847
-1.0224795703250689
0.4286126577128425
0.2534599785603994
-0.5974775796992908
-0.22974184891867735
0.31586542905539644
0.5168718901901846
0.10638186810317934
0.6703037470541217
-0.7374837373415843
0.18678683584955377
-0.7712276649866623
-1.1139902310989787
0.5288427918383225
0.7046247124796498
0.12652203821133295
-0.70405505028148
0.0739987099558325
0.7771143325956864
0.1381202143996262
0.5602940988719025
-0.5520909735547852
0.4160744059801517
-0.03513542729521518
0.4292875027165503
-1.2293932178362967
1.2056959283648883
-0.3030092312291414
-0.0361848326747051
0.15990420890242646
0.25403742602416424
-0.5291613220025654
0.04320061855315989
-0.37655171166660073
0.19942850485158933
0.1837620948278227
0.1286124856881131
-0.3532796003120806
-0.3063074082568583
0.16261286507716918
-0.1422509585350623
-0.35785598325860757
-0.5089735324302569
-1.283504027495087
0.15916302612194239
0.8986233838544488
-0.23613844825007013
-0.05894978358680808
0.5979054119477797
-0.21056068869436806
0.68872140103366
0.22743776949500136
-0.4025333993756626
-0.34675213523582843
0.45158912660641504
-0.49178166293507
-0.7692050644961156
0.15499950033261
-0.54435856942542
0.24558545151907282
0.38819762027559646
1.3770394303598437
0.4720676725591962
0.2862894044551515
-1.1678663389104735
-1.0628064597570155
0.4015659158421395
-0.23022486146265056
-0.019094760417367462
0.6088306053208102
-0.46935593687107313
-1.2667667447819768
1.157433226533863
-0.0674174181827793
0.29419715947736724
-0.00010209563854640669
1.1593082629743658
-0.6543233048833147
-0.05015399325414345
0.5193556297559428
0.3567535589357044
0.5237804469579779
0.5672971382947274
-0.037956333080428895
-0.1334977604458389
0.4623385076954288
0.6946225564719655
0.573026274214874
-0.3500985839288451
0.07733314233359742
-1.2204257153558153
-0.03616955363213266
0.373418140450336
0.38332071500561415
0.14884292522974907
-1.0242461633364175
-0.20628077990330623
1.2432807026795658
-0.37057126772233134
0.5146753423540854
-0.2694608749798183
-0.9315168870512348
-0.3345138786661169
-1.8066045880874442
-0.4964062839016007
1.0334800928149563
-0.21462509325198526
0.30865557882982025
-0.570594120553119
0.9931869262626768
0.529551283609073
-0.9024313044871809
0.06789378840019937
-0.2029260422744511
0.2690621544012616
-0.15932411545321185
-0.25209107421067856
0.3071841391717317
0.2779996725886149
-0.22145187292060678
-0.2207647761849374
-0.502654877679226
0.4073927479748618
-1.5661398219867642
-0.2732790430702819
-0.5373569219327373
-0.9507979508540501
0.2911391259453458
-0.033666079802954454
0.6020346965328323
0.474151902308726
-0.04687005590484154
-0.4604983065938476
-0.5072926140306064
0.023616209582142098
-0.18283491330932788
0.3042333939168709
0.4812160698646467
0.31215182757518145
0.015451873914334668
-0.5559300452889483
-1.1112188064435955
-0.576759450308419
0.28473462229485974
-0.11302072586748035
-0.2684783219047629
-0.32650250737913866
0.11863655515974801
-0.21954061924020485
0.1926408316141158
-0.9174480759729657
-1.0083801582354104
-0.07026060769588349
-0.05015204679090597
-0.29920821141139686
-0.4648707957430753
-0.8432184762620822
0.32293988592137607
0.6337728846740069
0.7124064861039446
0.19350178833139206
-1.0205602517658314
-0.006283288112328322
0.009288575723993553
-0.2855443589589839
-0.07712139286148029
0.407218356328686
0.16550302387044233
-0.8634837176992649
0.2277750060865817
0.07950886739651247
-1.9128639291312706
-0.6457456080035914
0.08757367212060166
0.6469859146362046
0.6053894569900502
-0.7845587894525808
-0.367694866105684
0.2061612519542666
0.08107204564144246
-0.6202981588358518
-1.1071201712724963
0.4539916642784608
0.7758731403205482
-0.17740441738796206
0.4723894031295498
-0.3027830091444341
-0.8737486552087911
-0.016057980729668683
0.0911713871405554
-0.37048843215891514
0.10036966932474677
0.12241807868637276
0.0933783906221077
-0.33687961385725507
0.43315378058816223
-0.5507424568089622
-0.336015871708129
0.23173836158155325
0.7401855344395956
1.060426691538501
-0.853253246390369
0.7029584214323055
0.2986988315900414
-0.051601790419051746
-0.32825827905562033
0.5026612279930072
1.0633458492536447
0.141914361510086
0.1874216222639995
0.8322827798074829
-0.2765948402243176
-1.3541354403296122
0.0859176296030222
-0.5437119021959372
0.08115147145897131
-0.003051127958842964
-0.45048242192111787
0.15907647636485597
1.4130763582475478
0.05461234411550507
1.1909001090579316
0.10850639553352392
0.3736480812434287
0.6921822980367356
-1.0664784895693935